<?xml version="1.0"?>
<opencv_storage>
<cascade>
  <stageType>BOOST</stageType>
  <featureType>HAAR</featureType>
  <height>24</height>
  <width>24</width>
  <stageParams>
    <boostType>GAB</boostType>
    <minHitRate>9.9500000476837158e-01</minHitRate>
    <maxFalseAlarm>5.0000000000000000e-01</maxFalseAlarm>
    <weightTrimRate>9.4999999999999996e-01</weightTrimRate>
    <maxDepth>1</maxDepth>
    <maxWeakCount>100</maxWeakCount></stageParams>
  <featureParams>
    <maxCatCount>0</maxCatCount>
    <featSize>1</featSize>
    <mode>BASIC</mode></featureParams>
  <stageNum>100</stageNum>
  <stages>
    <!-- stage 0 -->
    <_>
      <maxWeakCount>4</maxWeakCount>
      <stageThreshold>-9.4070088863372803e-01</stageThreshold>
      <weakClassifiers>
        <_>
          <internalNodes>
            0 -1 130 7.9000018537044525e-02</internalNodes>
          <leafValues>
            -7.8494626283645630e-01 5.9292036294937134e-01</leafValues></_>
        <_>
          <internalNodes>
            0 -1 300 -3.4729229810182005e-05</internalNodes>
          <leafValues>
            -9.6888798475265503e-01 3.2250759005546570e-01</leafValues></_>
        <_>
          <internalNodes>
            0 -1 306 -2.9377260943874717e-04</internalNodes>
          <leafValues>
            -8.6578428745269775e-01 3.5610440373420715e-01</leafValues></_>
        <_>
          <internalNodes>
            0 -1 116 -5.6526926346123219e-04</internalNodes>
          <leafValues>
            -9.6116548776626587e-01 3.8752207159996033e-01</leafValues></_></weakClassifiers></_>
    <!-- stage 1 -->
    <_>
      <maxWeakCount>4</maxWeakCount>
      <stageThreshold>-8.5359680652618408e-01</stageThreshold>
      <weakClassifiers>
        <_>
          <internalNodes>
            0 -1 209 -3.6487627774477005e-02</internalNodes>
          <leafValues>
            6.1797749996185303e-01 -6.3809525966644287e-01</leafValues></_>
        <_>
          <internalNodes>
            0 -1 131 -1.1959094990743324e-04</internalNodes>
          <leafValues>
            -8.1432384252548218e-01 4.3104615807533264e-01</leafValues></_>
        <_>
          <internalNodes>
            0 -1 33 8.6348183685913682e-05</internalNodes>
          <leafValues>
            3.1700628995895386e-01 -9.5638394355773926e-01</leafValues></_>
        <_>
          <internalNodes>
            0 -1 168 -1.2223892845213413e-02</internalNodes>
          <leafValues>
            -9.5355194807052612e-01 3.0983620882034302e-01</leafValues></_></weakClassifiers></_>
    <!-- stage 2 -->
    <_>
      <maxWeakCount>4</maxWeakCount>
      <stageThreshold>-7.9582381248474121e-01</stageThreshold>
      <weakClassifiers>
        <_>
          <internalNodes>
            0 -1 152 -4.0728412568569183e-02</internalNodes>
          <leafValues>
            6.6666668653488159e-01 -6.6507178544998169e-01</leafValues></_>
        <_>
          <internalNodes>
            0 -1 300 3.1444185879081488e-05</internalNodes>
          <leafValues>
            4.4589483737945557e-01 -7.2518497705459595e-01</leafValues></_>
        <_>
          <internalNodes>
            0 -1 259 6.4301042584702373e-05</internalNodes>
          <leafValues>
            3.3015292882919312e-01 -8.8480013608932495e-01</leafValues></_>
        <_>
          <internalNodes>
            0 -1 271 -1.5701625670772046e-05</internalNodes>
          <leafValues>
            -9.0679985284805298e-01 4.7102025151252747e-01</leafValues></_></weakClassifiers></_>
    <!-- stage 3 -->
    <_>
      <maxWeakCount>4</maxWeakCount>
      <stageThreshold>-7.5398725271224976e-01</stageThreshold>
      <weakClassifiers>
        <_>
          <internalNodes>
            0 -1 85 -7.3414728045463562e-02</internalNodes>
          <leafValues>
            5.5339807271957397e-01 -6.9387757778167725e-01</leafValues></_>
        <_>
          <internalNodes>
            0 -1 115 1.4645137707702816e-04</internalNodes>
          <leafValues>
            3.9998248219490051e-01 -8.3642244338989258e-01</leafValues></_>
        <_>
          <internalNodes>
            0 -1 251 -2.7966633206233382e-04</internalNodes>
          <leafValues>
            -9.0275955200195313e-01 3.1149700284004211e-01</leafValues></_>
        <_>
          <internalNodes>
            0 -1 258 2.0755619334522635e-04</internalNodes>
          <leafValues>
            4.7049897909164429e-01 -7.7158915996551514e-01</leafValues></_></weakClassifiers></_>
    <!-- stage 4 -->
    <_>
      <maxWeakCount>4</maxWeakCount>
      <stageThreshold>-9.7461444139480591e-01</stageThreshold>
      <weakClassifiers>
        <_>
          <internalNodes>
            0 -1 264 1.1115913093090057e-01</internalNodes>
          <leafValues>
            -7.1111112833023071e-01 4.1176471114158630e-01</leafValues></_>
        <_>
          <internalNodes>
            0 -1 260 -1.8928616191260517e-04</internalNodes>
          <leafValues>
            -9.0595543384552002e-01 3.8946741819381714e-01</leafValues></_>
        <_>
          <internalNodes>
            0 -1 272 2.1214861772023141e-04</internalNodes>
          <leafValues>
            2.7645820379257202e-01 -9.6834766864776611e-01</leafValues></_>
        <_>
          <internalNodes>
            0 -1 274 -2.1410945919342339e-04</internalNodes>
          <leafValues>
            -8.7963998317718506e-01 3.6599388718605042e-01</leafValues></_></weakClassifiers></_>
    <!-- stage 5 -->
    <_>
      <maxWeakCount>4</maxWeakCount>
      <stageThreshold>-8.8388377428054810e-01</stageThreshold>
      <weakClassifiers>
        <_>
          <internalNodes>
            0 -1 286 9.8236341727897525e-05</internalNodes>
          <leafValues>
            2.0903955399990082e-01 -9.5081967115402222e-01</leafValues></_>
        <_>
          <internalNodes>
            0 -1 265 1.1096206307411194e-01</internalNodes>
          <leafValues>
            -6.1162739992141724e-01 5.3465950489044189e-01</leafValues></_>
        <_>
          <internalNodes>
            0 -1 122 -1.4612107770517468e-04</internalNodes>
          <leafValues>
            -8.2457822561264038e-01 4.3252396583557129e-01</leafValues></_>
        <_>
          <internalNodes>
            0 -1 299 -4.2844578274525702e-04</internalNodes>
          <leafValues>
            -1. 3.5685458779335022e-01</leafValues></_></weakClassifiers></_>
    <!-- stage 6 -->
    <_>
      <maxWeakCount>3</maxWeakCount>
      <stageThreshold>-1.2929605245590210e+00</stageThreshold>
      <weakClassifiers>
        <_>
          <internalNodes>
            0 -1 301 5.7481956901028752e-05</internalNodes>
          <leafValues>
            3.1168830394744873e-01 -8.7586206197738647e-01</leafValues></_>
        <_>
          <internalNodes>
            0 -1 273 1.1506078590173274e-04</internalNodes>
          <leafValues>
            3.9786320924758911e-01 -7.7468925714492798e-01</leafValues></_>
        <_>
          <internalNodes>
            0 -1 169 1.5907478518784046e-04</internalNodes>
          <leafValues>
            3.5759076476097107e-01 -8.7626123428344727e-01</leafValues></_></weakClassifiers></_>
    <!-- stage 7 -->
    <_>
      <maxWeakCount>2</maxWeakCount>
      <stageThreshold>-1.4259168505668640e-01</stageThreshold>
      <weakClassifiers>
        <_>
          <internalNodes>
            0 -1 125 -3.3998608589172363e-02</internalNodes>
          <leafValues>
            8.0000001192092896e-01 -5.8951967954635620e-01</leafValues></_>
        <_>
          <internalNodes>
            0 -1 310 3.2457424094900489e-04</internalNodes>
          <leafValues>
            4.6474003791809082e-01 -9.4259166717529297e-01</leafValues></_></weakClassifiers></_>
    <!-- stage 8 -->
    <_>
      <maxWeakCount>4</maxWeakCount>
      <stageThreshold>-1.0036168098449707e+00</stageThreshold>
      <weakClassifiers>
        <_>
          <internalNodes>
            0 -1 153 -7.7306739985942841e-02</internalNodes>
          <leafValues>
            5.7575756311416626e-01 -6.8000000715255737e-01</leafValues></_>
        <_>
          <internalNodes>
            0 -1 162 -6.9012145104352385e-05</internalNodes>
          <leafValues>
            -8.9319527149200439e-01 3.2522755861282349e-01</leafValues></_>
        <_>
          <internalNodes>
            0 -1 309 3.8725230842828751e-04</internalNodes>
          <leafValues>
            3.0917611718177795e-01 -9.8588252067565918e-01</leafValues></_>
        <_>
          <internalNodes>
            0 -1 307 9.1148162027820945e-05</internalNodes>
          <leafValues>
            2.6040226221084595e-01 -9.5128667354583740e-01</leafValues></_></weakClassifiers></_>
    <!-- stage 9 -->
    <_>
      <maxWeakCount>6</maxWeakCount>
      <stageThreshold>-7.8769379854202271e-01</stageThreshold>
      <weakClassifiers>
        <_>
          <internalNodes>
            0 -1 158 9.7657978534698486e-02</internalNodes>
          <leafValues>
            -7.7319586277008057e-01 6.7619049549102783e-01</leafValues></_>
        <_>
          <internalNodes>
            0 -1 154 -5.3201302886009216e-02</internalNodes>
          <leafValues>
            6.3813263177871704e-01 -3.9929437637329102e-01</leafValues></_>
        <_>
          <internalNodes>
            0 -1 69 -7.8581832349300385e-03</internalNodes>
          <leafValues>
            -9.8413580656051636e-01 2.4353808164596558e-01</leafValues></_>
        <_>
          <internalNodes>
            0 -1 68 9.0059312060475349e-03</internalNodes>
          <leafValues>
            1.6769854724407196e-01 -8.3375668525695801e-01</leafValues></_>
        <_>
          <internalNodes>
            0 -1 206 4.0040654130280018e-03</internalNodes>
          <leafValues>
            -2.4479161202907562e-01 9.0193992853164673e-01</leafValues></_>
        <_>
          <internalNodes>
            0 -1 88 7.4218842200934887e-04</internalNodes>
          <leafValues>
            2.1835146844387054e-01 -8.4406888484954834e-01</leafValues></_></weakClassifiers></_>
    <!-- stage 10 -->
    <_>
      <maxWeakCount>100</maxWeakCount>
      <stageThreshold>-1.0476862192153931e+00</stageThreshold>
      <weakClassifiers>
        <_>
          <internalNodes>
            0 -1 291 4.5692162530031055e-05</internalNodes>
          <leafValues>
            -8.2198953628540039e-01 7.2222220897674561e-01</leafValues></_>
        <_>
          <internalNodes>
            0 -1 207 3.1749012414366007e-03</internalNodes>
          <leafValues>
            -4.4919678568840027e-01 7.9033172130584717e-01</leafValues></_>
        <_>
          <internalNodes>
            0 -1 242 1.3091438631818164e-05</internalNodes>
          <leafValues>
            -1.2953585386276245e-01 1.</leafValues></_>
        <_>
          <internalNodes>
            0 -1 171 -3.6639605241362005e-05</internalNodes>
          <leafValues>
            -5.6017011404037476e-01 2.6508688926696777e-01</leafValues></_>
        <_>
          <internalNodes>
            0 -1 256 -1.2476166375563480e-05</internalNodes>
          <leafValues>
            8.4538596868515015e-01 -1.0196895152330399e-01</leafValues></_>
        <_>
          <internalNodes>
            0 -1 101 7.8123495914041996e-03</internalNodes>
          <leafValues>
            1.2794302403926849e-01 -8.7749147415161133e-01</leafValues></_>
        <_>
          <internalNodes>
            0 -1 269 4.3027207721024752e-04</internalNodes>
          <leafValues>
            -1.3428041338920593e-01 9.7528225183486938e-01</leafValues></_>
        <_>
          <internalNodes>
            0 -1 93 3.6863498389720917e-02</internalNodes>
          <leafValues>
            1.5541757643222809e-01 -7.3605644702911377e-01</leafValues></_>
        <_>
          <internalNodes>
            0 -1 229 7.9069854109548032e-05</internalNodes>
          <leafValues>
            -9.2569202184677124e-02 9.2670989036560059e-01</leafValues></_>
        <_>
          <internalNodes>
            0 -1 117 -2.5379224680364132e-03</internalNodes>
          <leafValues>
            -9.5043081045150757e-01 1.0845698416233063e-01</leafValues></_>
        <_>
          <internalNodes>
            0 -1 232 2.6366826205048710e-05</internalNodes>
          <leafValues>
            -6.3719257712364197e-02 1.</leafValues></_>
        <_>
          <internalNodes>
            0 -1 89 -1.6750257462263107e-02</internalNodes>
          <leafValues>
            -9.0861594676971436e-01 7.7597461640834808e-02</leafValues></_>
        <_>
          <internalNodes>
            0 -1 105 1.7806176037993282e-04</internalNodes>
          <leafValues>
            -3.8498751819133759e-02 9.7114682197570801e-01</leafValues></_>
        <_>
          <internalNodes>
            0 -1 304 -5.8193746954202652e-03</internalNodes>
          <leafValues>
            -9.1927391290664673e-01 3.9850816130638123e-02</leafValues></_>
        <_>
          <internalNodes>
            0 -1 233 -3.1858766305958852e-05</internalNodes>
          <leafValues>
            9.5805352926254272e-01 -5.2019152790307999e-02</leafValues></_>
        <_>
          <internalNodes>
            0 -1 123 4.2605392634868622e-02</internalNodes>
          <leafValues>
            3.5594701766967773e-02 -1.</leafValues></_>
        <_>
          <internalNodes>
            0 -1 137 -4.2707254178822041e-03</internalNodes>
          <leafValues>
            -7.1871113777160645e-01 4.5665711164474487e-02</leafValues></_>
        <_>
          <internalNodes>
            0 -1 281 1.1026313528418541e-02</internalNodes>
          <leafValues>
            -3.0769616365432739e-02 1.</leafValues></_>
        <_>
          <internalNodes>
            0 -1 107 -5.4593482054769993e-03</internalNodes>
          <leafValues>
            -1. 1.2149740010499954e-02</leafValues></_>
        <_>
          <internalNodes>
            0 -1 227 -1.7383764497935772e-03</internalNodes>
          <leafValues>
            1. -4.2468826286494732e-03</leafValues></_>
        <_>
          <internalNodes>
            0 -1 214 -5.8531397953629494e-03</internalNodes>
          <leafValues>
            -1. 3.9764898829162121e-03</leafValues></_>
        <_>
          <internalNodes>
            0 -1 95 -2.7397973462939262e-02</internalNodes>
          <leafValues>
            1. -5.3739380091428757e-03</leafValues></_>
        <_>
          <internalNodes>
            0 -1 82 -2.3455056361854076e-03</internalNodes>
          <leafValues>
            -1. 2.7676387690007687e-03</leafValues></_>
        <_>
          <internalNodes>
            0 -1 71 -1.0419616475701332e-02</internalNodes>
          <leafValues>
            1. 9.7705924417823553e-04</leafValues></_>
        <_>
          <internalNodes>
            0 -1 71 -6.0503962449729443e-03</internalNodes>
          <leafValues>
            -1. -9.7705179359763861e-04</leafValues></_>
        <_>
          <internalNodes>
            0 -1 71 -1.0419616475701332e-02</internalNodes>
          <leafValues>
            1. 9.7705179359763861e-04</leafValues></_>
        <_>
          <internalNodes>
            0 -1 71 -6.0503962449729443e-03</internalNodes>
          <leafValues>
            -1. -9.7705179359763861e-04</leafValues></_>
        <_>
          <internalNodes>
            0 -1 71 -5.1128454506397247e-03</internalNodes>
          <leafValues>
            1. 1.9750327337533236e-03</leafValues></_>
        <_>
          <internalNodes>
            0 -1 71 -6.0503962449729443e-03</internalNodes>
          <leafValues>
            -1. -1.9750304054468870e-03</leafValues></_>
        <_>
          <internalNodes>
            0 -1 71 -5.1128454506397247e-03</internalNodes>
          <leafValues>
            1. 1.9750304054468870e-03</leafValues></_>
        <_>
          <internalNodes>
            0 -1 71 -6.0503962449729443e-03</internalNodes>
          <leafValues>
            -1. -1.9750304054468870e-03</leafValues></_>
        <_>
          <internalNodes>
            0 -1 71 -5.1128454506397247e-03</internalNodes>
          <leafValues>
            1. 1.9750304054468870e-03</leafValues></_>
        <_>
          <internalNodes>
            0 -1 71 -6.0503962449729443e-03</internalNodes>
          <leafValues>
            -1. -1.9750304054468870e-03</leafValues></_>
        <_>
          <internalNodes>
            0 -1 71 -5.1128454506397247e-03</internalNodes>
          <leafValues>
            1. 1.9750304054468870e-03</leafValues></_>
        <_>
          <internalNodes>
            0 -1 71 -6.0503962449729443e-03</internalNodes>
          <leafValues>
            -1. -1.9750304054468870e-03</leafValues></_>
        <_>
          <internalNodes>
            0 -1 71 -5.1128454506397247e-03</internalNodes>
          <leafValues>
            1. 1.9750304054468870e-03</leafValues></_>
        <_>
          <internalNodes>
            0 -1 71 -6.0503962449729443e-03</internalNodes>
          <leafValues>
            -1. -1.9750304054468870e-03</leafValues></_>
        <_>
          <internalNodes>
            0 -1 71 -5.1128454506397247e-03</internalNodes>
          <leafValues>
            1. 1.9750304054468870e-03</leafValues></_>
        <_>
          <internalNodes>
            0 -1 71 -6.0503962449729443e-03</internalNodes>
          <leafValues>
            -1. -1.9750304054468870e-03</leafValues></_>
        <_>
          <internalNodes>
            0 -1 71 -5.1128454506397247e-03</internalNodes>
          <leafValues>
            1. 1.9750304054468870e-03</leafValues></_>
        <_>
          <internalNodes>
            0 -1 71 -6.0503962449729443e-03</internalNodes>
          <leafValues>
            -1. -1.9750304054468870e-03</leafValues></_>
        <_>
          <internalNodes>
            0 -1 71 -5.1128454506397247e-03</internalNodes>
          <leafValues>
            1. 1.9750304054468870e-03</leafValues></_>
        <_>
          <internalNodes>
            0 -1 71 -6.0503962449729443e-03</internalNodes>
          <leafValues>
            -1. -1.9750304054468870e-03</leafValues></_>
        <_>
          <internalNodes>
            0 -1 71 -5.1128454506397247e-03</internalNodes>
          <leafValues>
            1. 1.9750304054468870e-03</leafValues></_>
        <_>
          <internalNodes>
            0 -1 71 -6.0503962449729443e-03</internalNodes>
          <leafValues>
            -1. -1.9750304054468870e-03</leafValues></_>
        <_>
          <internalNodes>
            0 -1 71 -5.1128454506397247e-03</internalNodes>
          <leafValues>
            1. 1.9750304054468870e-03</leafValues></_>
        <_>
          <internalNodes>
            0 -1 71 -6.0503962449729443e-03</internalNodes>
          <leafValues>
            -1. -1.9750304054468870e-03</leafValues></_>
        <_>
          <internalNodes>
            0 -1 71 -5.1128454506397247e-03</internalNodes>
          <leafValues>
            1. 1.9750304054468870e-03</leafValues></_>
        <_>
          <internalNodes>
            0 -1 71 -6.0503962449729443e-03</internalNodes>
          <leafValues>
            -1. -1.9750304054468870e-03</leafValues></_>
        <_>
          <internalNodes>
            0 -1 71 -5.1128454506397247e-03</internalNodes>
          <leafValues>
            1. 1.9750304054468870e-03</leafValues></_>
        <_>
          <internalNodes>
            0 -1 71 -6.0503962449729443e-03</internalNodes>
          <leafValues>
            -1. -1.9750304054468870e-03</leafValues></_>
        <_>
          <internalNodes>
            0 -1 71 -5.1128454506397247e-03</internalNodes>
          <leafValues>
            1. 1.9750304054468870e-03</leafValues></_>
        <_>
          <internalNodes>
            0 -1 71 -6.0503962449729443e-03</internalNodes>
          <leafValues>
            -1. -1.9750304054468870e-03</leafValues></_>
        <_>
          <internalNodes>
            0 -1 71 -5.1128454506397247e-03</internalNodes>
          <leafValues>
            1. 1.9750304054468870e-03</leafValues></_>
        <_>
          <internalNodes>
            0 -1 71 -6.0503962449729443e-03</internalNodes>
          <leafValues>
            -1. -1.9750304054468870e-03</leafValues></_>
        <_>
          <internalNodes>
            0 -1 71 -5.1128454506397247e-03</internalNodes>
          <leafValues>
            1. 1.9750304054468870e-03</leafValues></_>
        <_>
          <internalNodes>
            0 -1 71 -6.0503962449729443e-03</internalNodes>
          <leafValues>
            -1. -1.9750304054468870e-03</leafValues></_>
        <_>
          <internalNodes>
            0 -1 71 -5.1128454506397247e-03</internalNodes>
          <leafValues>
            1. 1.9750304054468870e-03</leafValues></_>
        <_>
          <internalNodes>
            0 -1 71 -6.0503962449729443e-03</internalNodes>
          <leafValues>
            -1. -1.9750304054468870e-03</leafValues></_>
        <_>
          <internalNodes>
            0 -1 71 -5.1128454506397247e-03</internalNodes>
          <leafValues>
            1. 1.9750304054468870e-03</leafValues></_>
        <_>
          <internalNodes>
            0 -1 71 -6.0503962449729443e-03</internalNodes>
          <leafValues>
            -1. -1.9750304054468870e-03</leafValues></_>
        <_>
          <internalNodes>
            0 -1 71 -5.1128454506397247e-03</internalNodes>
          <leafValues>
            1. 1.9750304054468870e-03</leafValues></_>
        <_>
          <internalNodes>
            0 -1 71 -6.0503962449729443e-03</internalNodes>
          <leafValues>
            -1. -1.9750304054468870e-03</leafValues></_>
        <_>
          <internalNodes>
            0 -1 71 -5.1128454506397247e-03</internalNodes>
          <leafValues>
            1. 1.9750304054468870e-03</leafValues></_>
        <_>
          <internalNodes>
            0 -1 71 -6.0503962449729443e-03</internalNodes>
          <leafValues>
            -1. -1.9750304054468870e-03</leafValues></_>
        <_>
          <internalNodes>
            0 -1 71 -5.1128454506397247e-03</internalNodes>
          <leafValues>
            1. 1.9750304054468870e-03</leafValues></_>
        <_>
          <internalNodes>
            0 -1 71 -6.0503962449729443e-03</internalNodes>
          <leafValues>
            -1. -1.9750304054468870e-03</leafValues></_>
        <_>
          <internalNodes>
            0 -1 71 -5.1128454506397247e-03</internalNodes>
          <leafValues>
            1. 1.9750304054468870e-03</leafValues></_>
        <_>
          <internalNodes>
            0 -1 71 -6.0503962449729443e-03</internalNodes>
          <leafValues>
            -1. -1.9750304054468870e-03</leafValues></_>
        <_>
          <internalNodes>
            0 -1 71 -5.1128454506397247e-03</internalNodes>
          <leafValues>
            1. 1.9750304054468870e-03</leafValues></_>
        <_>
          <internalNodes>
            0 -1 71 -6.0503962449729443e-03</internalNodes>
          <leafValues>
            -1. -1.9750304054468870e-03</leafValues></_>
        <_>
          <internalNodes>
            0 -1 71 -5.1128454506397247e-03</internalNodes>
          <leafValues>
            1. 1.9750304054468870e-03</leafValues></_>
        <_>
          <internalNodes>
            0 -1 71 -6.0503962449729443e-03</internalNodes>
          <leafValues>
            -1. -1.9750304054468870e-03</leafValues></_>
        <_>
          <internalNodes>
            0 -1 71 -5.1128454506397247e-03</internalNodes>
          <leafValues>
            1. 1.9750304054468870e-03</leafValues></_>
        <_>
          <internalNodes>
            0 -1 71 -6.0503962449729443e-03</internalNodes>
          <leafValues>
            -1. -1.9750304054468870e-03</leafValues></_>
        <_>
          <internalNodes>
            0 -1 71 -5.1128454506397247e-03</internalNodes>
          <leafValues>
            1. 1.9750304054468870e-03</leafValues></_>
        <_>
          <internalNodes>
            0 -1 71 -6.0503962449729443e-03</internalNodes>
          <leafValues>
            -1. -1.9750304054468870e-03</leafValues></_>
        <_>
          <internalNodes>
            0 -1 71 -5.1128454506397247e-03</internalNodes>
          <leafValues>
            1. 1.9750304054468870e-03</leafValues></_>
        <_>
          <internalNodes>
            0 -1 71 -6.0503962449729443e-03</internalNodes>
          <leafValues>
            -1. -1.9750304054468870e-03</leafValues></_>
        <_>
          <internalNodes>
            0 -1 71 -5.1128454506397247e-03</internalNodes>
          <leafValues>
            1. 1.9750304054468870e-03</leafValues></_>
        <_>
          <internalNodes>
            0 -1 71 -6.0503962449729443e-03</internalNodes>
          <leafValues>
            -1. -1.9750304054468870e-03</leafValues></_>
        <_>
          <internalNodes>
            0 -1 71 -5.1128454506397247e-03</internalNodes>
          <leafValues>
            1. 1.9750304054468870e-03</leafValues></_>
        <_>
          <internalNodes>
            0 -1 71 -6.0503962449729443e-03</internalNodes>
          <leafValues>
            -1. -1.9750304054468870e-03</leafValues></_>
        <_>
          <internalNodes>
            0 -1 71 -5.1128454506397247e-03</internalNodes>
          <leafValues>
            1. 1.9750304054468870e-03</leafValues></_>
        <_>
          <internalNodes>
            0 -1 71 -6.0503962449729443e-03</internalNodes>
          <leafValues>
            -1. -1.9750304054468870e-03</leafValues></_>
        <_>
          <internalNodes>
            0 -1 71 -5.1128454506397247e-03</internalNodes>
          <leafValues>
            1. 1.9750304054468870e-03</leafValues></_>
        <_>
          <internalNodes>
            0 -1 71 -6.0503962449729443e-03</internalNodes>
          <leafValues>
            -1. -1.9750304054468870e-03</leafValues></_>
        <_>
          <internalNodes>
            0 -1 71 -5.1128454506397247e-03</internalNodes>
          <leafValues>
            1. 1.9750304054468870e-03</leafValues></_>
        <_>
          <internalNodes>
            0 -1 71 -6.0503962449729443e-03</internalNodes>
          <leafValues>
            -1. -1.9750304054468870e-03</leafValues></_>
        <_>
          <internalNodes>
            0 -1 71 -5.1128454506397247e-03</internalNodes>
          <leafValues>
            1. 1.9750304054468870e-03</leafValues></_>
        <_>
          <internalNodes>
            0 -1 71 -6.0503962449729443e-03</internalNodes>
          <leafValues>
            -1. -1.9750304054468870e-03</leafValues></_>
        <_>
          <internalNodes>
            0 -1 71 -5.1128454506397247e-03</internalNodes>
          <leafValues>
            1. 1.9750304054468870e-03</leafValues></_>
        <_>
          <internalNodes>
            0 -1 71 -6.0503962449729443e-03</internalNodes>
          <leafValues>
            -1. -1.9750304054468870e-03</leafValues></_>
        <_>
          <internalNodes>
            0 -1 71 -5.1128454506397247e-03</internalNodes>
          <leafValues>
            1. 1.9750304054468870e-03</leafValues></_>
        <_>
          <internalNodes>
            0 -1 71 -6.0503962449729443e-03</internalNodes>
          <leafValues>
            -1. -1.9750304054468870e-03</leafValues></_>
        <_>
          <internalNodes>
            0 -1 71 -5.1128454506397247e-03</internalNodes>
          <leafValues>
            1. 1.9750304054468870e-03</leafValues></_>
        <_>
          <internalNodes>
            0 -1 71 -6.0503962449729443e-03</internalNodes>
          <leafValues>
            -1. -1.9750304054468870e-03</leafValues></_>
        <_>
          <internalNodes>
            0 -1 71 -5.1128454506397247e-03</internalNodes>
          <leafValues>
            1. 1.9750304054468870e-03</leafValues></_>
        <_>
          <internalNodes>
            0 -1 71 -6.0503962449729443e-03</internalNodes>
          <leafValues>
            -1. -1.9750304054468870e-03</leafValues></_>
        <_>
          <internalNodes>
            0 -1 71 -5.1128454506397247e-03</internalNodes>
          <leafValues>
            1. 1.9750304054468870e-03</leafValues></_></weakClassifiers></_>
    <!-- stage 11 -->
    <_>
      <maxWeakCount>40</maxWeakCount>
      <stageThreshold>-1.1989476680755615e+00</stageThreshold>
      <weakClassifiers>
        <_>
          <internalNodes>
            0 -1 262 7.5353190302848816e-02</internalNodes>
          <leafValues>
            -8.0198019742965698e-01 8.5567009449005127e-01</leafValues></_>
        <_>
          <internalNodes>
            0 -1 103 -4.1730888187885284e-03</internalNodes>
          <leafValues>
            7.1212816238403320e-01 -4.2061710357666016e-01</leafValues></_>
        <_>
          <internalNodes>
            0 -1 289 -9.5558978500775993e-05</internalNodes>
          <leafValues>
            8.6827248334884644e-01 -1.5894366800785065e-01</leafValues></_>
        <_>
          <internalNodes>
            0 -1 161 -3.8480047805933282e-05</internalNodes>
          <leafValues>
            -8.2115918397903442e-01 2.2758948802947998e-01</leafValues></_>
        <_>
          <internalNodes>
            0 -1 290 -4.8335525207221508e-04</internalNodes>
          <leafValues>
            8.1058388948440552e-01 -1.4680220186710358e-01</leafValues></_>
        <_>
          <internalNodes>
            0 -1 121 4.2211762774968520e-05</internalNodes>
          <leafValues>
            1.0032676905393600e-01 -9.2148673534393311e-01</leafValues></_>
        <_>
          <internalNodes>
            0 -1 303 -1.6222415433730930e-04</internalNodes>
          <leafValues>
            -1. 6.8753011524677277e-02</leafValues></_>
        <_>
          <internalNodes>
            0 -1 250 1.2669483112404123e-05</internalNodes>
          <leafValues>
            -1.2094160169363022e-01 8.1570202112197876e-01</leafValues></_>
        <_>
          <internalNodes>
            0 -1 160 -1.3789716467726976e-04</internalNodes>
          <leafValues>
            -7.5521522760391235e-01 6.7480340600013733e-02</leafValues></_>
        <_>
          <internalNodes>
            0 -1 253 -1.0822241893038154e-04</internalNodes>
          <leafValues>
            9.6995830535888672e-01 -4.6564567834138870e-02</leafValues></_>
        <_>
          <internalNodes>
            0 -1 143 5.1560910651460290e-04</internalNodes>
          <leafValues>
            4.1109573096036911e-02 -1.</leafValues></_>
        <_>
          <internalNodes>
            0 -1 276 9.7822479438036680e-04</internalNodes>
          <leafValues>
            -5.4013073444366455e-02 7.9644417762756348e-01</leafValues></_>
        <_>
          <internalNodes>
            0 -1 199 1.8964165356010199e-03</internalNodes>
          <leafValues>
            3.1349867582321167e-02 -9.2888355255126953e-01</leafValues></_>
        <_>
          <internalNodes>
            0 -1 188 1.0088698938488960e-02</internalNodes>
          <leafValues>
            -1.3910165056586266e-02 1.</leafValues></_>
        <_>
          <internalNodes>
            0 -1 191 -1.5030025679152459e-04</internalNodes>
          <leafValues>
            -9.3411117792129517e-01 2.4490242823958397e-02</leafValues></_>
        <_>
          <internalNodes>
            0 -1 213 -4.4082030653953552e-03</internalNodes>
          <leafValues>
            9.5526719093322754e-01 -1.3626906089484692e-02</leafValues></_>
        <_>
          <internalNodes>
            0 -1 87 -8.6806509643793106e-03</internalNodes>
          <leafValues>
            -1. 1.6504194587469101e-02</leafValues></_>
        <_>
          <internalNodes>
            0 -1 138 -8.1938385963439941e-02</internalNodes>
          <leafValues>
            1. -2.5176987983286381e-03</leafValues></_>
        <_>
          <internalNodes>
            0 -1 142 -2.2150397126097232e-04</internalNodes>
          <leafValues>
            -1. 4.0771192871034145e-03</leafValues></_>
        <_>
          <internalNodes>
            0 -1 102 -3.3628642995608971e-05</internalNodes>
          <leafValues>
            1. -2.3586840834468603e-03</leafValues></_>
        <_>
          <internalNodes>
            0 -1 129 -4.9642979865893722e-04</internalNodes>
          <leafValues>
            -1. 1.2329426826909184e-03</leafValues></_>
        <_>
          <internalNodes>
            0 -1 167 -3.1765206949785352e-04</internalNodes>
          <leafValues>
            1. -1.3439627364277840e-03</leafValues></_>
        <_>
          <internalNodes>
            0 -1 90 -6.0674751875922084e-04</internalNodes>
          <leafValues>
            -1. 3.3079067361541092e-04</leafValues></_>
        <_>
          <internalNodes>
            0 -1 71 -1.0260684415698051e-02</internalNodes>
          <leafValues>
            1. 1.2063269654027930e-11</leafValues></_>
        <_>
          <internalNodes>
            0 -1 170 -9.7087008180096745e-04</internalNodes>
          <leafValues>
            -1. 1.4278322923928499e-03</leafValues></_>
        <_>
          <internalNodes>
            0 -1 71 -1.0260684415698051e-02</internalNodes>
          <leafValues>
            1. 9.7031049861584506e-10</leafValues></_>
        <_>
          <internalNodes>
            0 -1 70 -1.0670755058526993e-02</internalNodes>
          <leafValues>
            -1. 1.4863842155119237e-15</leafValues></_>
        <_>
          <internalNodes>
            0 -1 64 -4.1579864919185638e-03</internalNodes>
          <leafValues>
            1. -2.8311213347159974e-16</leafValues></_>
        <_>
          <internalNodes>
            0 -1 55 -2.2553203161805868e-03</internalNodes>
          <leafValues>
            -1. 1.1565523454919457e-03</leafValues></_>
        <_>
          <internalNodes>
            0 -1 55 -3.0983246397227049e-03</internalNodes>
          <leafValues>
            1. -1.1565517634153366e-03</leafValues></_>
        <_>
          <internalNodes>
            0 -1 55 -2.2553203161805868e-03</internalNodes>
          <leafValues>
            -1. 1.1565517634153366e-03</leafValues></_>
        <_>
          <internalNodes>
            0 -1 60 -7.8484305413439870e-04</internalNodes>
          <leafValues>
            1. -1.1565517634153366e-03</leafValues></_>
        <_>
          <internalNodes>
            0 -1 43 -2.4267684784717858e-04</internalNodes>
          <leafValues>
            -1. -5.1567211611924790e-10</leafValues></_>
        <_>
          <internalNodes>
            0 -1 43 -3.5315967397764325e-04</internalNodes>
          <leafValues>
            1. -7.1454476526555178e-16</leafValues></_>
        <_>
          <internalNodes>
            0 -1 43 -2.4267684784717858e-04</internalNodes>
          <leafValues>
            -1. -8.9559652249394158e-16</leafValues></_>
        <_>
          <internalNodes>
            0 -1 267 -7.1652852930128574e-03</internalNodes>
          <leafValues>
            1. -1.0593571932986379e-03</leafValues></_>
        <_>
          <internalNodes>
            0 -1 87 -3.6535758525133133e-02</internalNodes>
          <leafValues>
            -1. 1.0593567276373506e-03</leafValues></_>
        <_>
          <internalNodes>
            0 -1 38 -4.9052690155804157e-04</internalNodes>
          <leafValues>
            1. 3.9628170189764944e-10</leafValues></_>
        <_>
          <internalNodes>
            0 -1 8 8.1122346455231309e-04</internalNodes>
          <leafValues>
            2.2636517175820972e-15 -1.</leafValues></_>
        <_>
          <internalNodes>
            0 -1 0 1.5030025679152459e-04</internalNodes>
          <leafValues>
            -2.0252932316231685e-16 -1.</leafValues></_></weakClassifiers></_>
    <!-- stage 12 -->
    <_>
      <maxWeakCount>7</maxWeakCount>
      <stageThreshold>-1.3731009960174561e+00</stageThreshold>
      <weakClassifiers>
        <_>
          <internalNodes>
            0 -1 114 3.6553730024024844e-04</internalNodes>
          <leafValues>
            -8.6206895112991333e-01 1.</leafValues></_>
        <_>
          <internalNodes>
            0 -1 72 -4.3683247640728951e-03</internalNodes>
          <leafValues>
            1. -4.3376126885414124e-01</leafValues></_>
        <_>
          <internalNodes>
            0 -1 294 -2.7417476303526200e-05</internalNodes>
          <leafValues>
            9.6811664104461670e-01 -6.3159629702568054e-02</leafValues></_>
        <_>
          <internalNodes>
            0 -1 141 -5.2578351460397243e-04</internalNodes>
          <leafValues>
            1. -2.2637156769633293e-02</leafValues></_>
        <_>
          <internalNodes>
            0 -1 24 -4.9980964831775054e-05</internalNodes>
          <leafValues>
            -1. 1.3839800842106342e-02</leafValues></_>
        <_>
          <internalNodes>
            0 -1 80 -5.0442962674424052e-05</internalNodes>
          <leafValues>
            1. -8.0270525068044662e-03</leafValues></_>
        <_>
          <internalNodes>
            0 -1 7 -6.6974493674933910e-03</internalNodes>
          <leafValues>
            -1. 2.7132721152156591e-03</leafValues></_></weakClassifiers></_>
    <!-- stage 13 -->
    <_>
      <maxWeakCount>7</maxWeakCount>
      <stageThreshold>-1.3757677078247070e+00</stageThreshold>
      <weakClassifiers>
        <_>
          <internalNodes>
            0 -1 110 9.0287561761215329e-04</internalNodes>
          <leafValues>
            -8.6206895112991333e-01 1.</leafValues></_>
        <_>
          <internalNodes>
            0 -1 72 -4.3683247640728951e-03</internalNodes>
          <leafValues>
            1. -4.3376126885414124e-01</leafValues></_>
        <_>
          <internalNodes>
            0 -1 294 -2.7417476303526200e-05</internalNodes>
          <leafValues>
            1. -6.5801128745079041e-02</leafValues></_>
        <_>
          <internalNodes>
            0 -1 134 2.1215126253082417e-05</internalNodes>
          <leafValues>
            -1.5246807597577572e-02 1.</leafValues></_>
        <_>
          <internalNodes>
            0 -1 23 8.4071602032054216e-05</internalNodes>
          <leafValues>
            -1.5420238487422466e-03 1.</leafValues></_>
        <_>
          <internalNodes>
            0 -1 9 -1.8733977412921377e-05</internalNodes>
          <leafValues>
            -1. 2.6525186840444803e-03</leafValues></_>
        <_>
          <internalNodes>
            0 -1 3 4.2430252506164834e-05</internalNodes>
          <leafValues>
            6.2209393192347306e-09 1.</leafValues></_></weakClassifiers></_>
    <!-- stage 14 -->
    <_>
      <maxWeakCount>5</maxWeakCount>
      <stageThreshold>-1.3784202337265015e+00</stageThreshold>
      <weakClassifiers>
        <_>
          <internalNodes>
            0 -1 110 9.0287561761215329e-04</internalNodes>
          <leafValues>
            -8.6206895112991333e-01 1.</leafValues></_>
        <_>
          <internalNodes>
            0 -1 72 -4.3683247640728951e-03</internalNodes>
          <leafValues>
            1. -4.3376126885414124e-01</leafValues></_>
        <_>
          <internalNodes>
            0 -1 246 -3.5034405300393701e-04</internalNodes>
          <leafValues>
            1. -6.8781606853008270e-02</leafValues></_>
        <_>
          <internalNodes>
            0 -1 165 2.7579665184020996e-03</internalNodes>
          <leafValues>
            -1.3807474635541439e-02 1.</leafValues></_>
        <_>
          <internalNodes>
            0 -1 23 8.4071602032054216e-05</internalNodes>
          <leafValues>
            -8.7754864352973527e-07 1.</leafValues></_></weakClassifiers></_>
    <!-- stage 15 -->
    <_>
      <maxWeakCount>6</maxWeakCount>
      <stageThreshold>-1.3757677078247070e+00</stageThreshold>
      <weakClassifiers>
        <_>
          <internalNodes>
            0 -1 126 4.3393871746957302e-03</internalNodes>
          <leafValues>
            -8.5294115543365479e-01 1.</leafValues></_>
        <_>
          <internalNodes>
            0 -1 222 2.6811908930540085e-02</internalNodes>
          <leafValues>
            -4.3632915616035461e-01 1.</leafValues></_>
        <_>
          <internalNodes>
            0 -1 278 -4.2499518021941185e-03</internalNodes>
          <leafValues>
            1. -6.6278517246246338e-02</leafValues></_>
        <_>
          <internalNodes>
            0 -1 204 -1.8717489729169756e-04</internalNodes>
          <leafValues>
            1. -1.9771618768572807e-02</leafValues></_>
        <_>
          <internalNodes>
            0 -1 26 8.4071602032054216e-05</internalNodes>
          <leafValues>
            -3.0997083522379398e-03 1.</leafValues></_>
        <_>
          <internalNodes>
            0 -1 0 -2.6030535809695721e-04</internalNodes>
          <leafValues>
            -1. 2.6525100693106651e-03</leafValues></_></weakClassifiers></_>
    <!-- stage 16 -->
    <_>
      <maxWeakCount>6</maxWeakCount>
      <stageThreshold>-1.3731009960174561e+00</stageThreshold>
      <weakClassifiers>
        <_>
          <internalNodes>
            0 -1 157 6.9987466558814049e-03</internalNodes>
          <leafValues>
            -8.6206895112991333e-01 1.</leafValues></_>
        <_>
          <internalNodes>
            0 -1 72 -4.3683247640728951e-03</internalNodes>
          <leafValues>
            1. -4.3376126885414124e-01</leafValues></_>
        <_>
          <internalNodes>
            0 -1 294 -2.7417476303526200e-05</internalNodes>
          <leafValues>
            1. -6.5801128745079041e-02</leafValues></_>
        <_>
          <internalNodes>
            0 -1 134 2.1215126253082417e-05</internalNodes>
          <leafValues>
            -1.5246807597577572e-02 1.</leafValues></_>
        <_>
          <internalNodes>
            0 -1 42 -1.1113779619336128e-03</internalNodes>
          <leafValues>
            -1. 8.9500546455383301e-03</leafValues></_>
        <_>
          <internalNodes>
            0 -1 23 8.4071602032054216e-05</internalNodes>
          <leafValues>
            -5.1728347316384315e-03 1.</leafValues></_></weakClassifiers></_>
    <!-- stage 17 -->
    <_>
      <maxWeakCount>7</maxWeakCount>
      <stageThreshold>-1.3757677078247070e+00</stageThreshold>
      <weakClassifiers>
        <_>
          <internalNodes>
            0 -1 110 9.0287561761215329e-04</internalNodes>
          <leafValues>
            -8.6206895112991333e-01 1.</leafValues></_>
        <_>
          <internalNodes>
            0 -1 72 -4.3683247640728951e-03</internalNodes>
          <leafValues>
            1. -4.3376126885414124e-01</leafValues></_>
        <_>
          <internalNodes>
            0 -1 277 -1.6587573336437345e-03</internalNodes>
          <leafValues>
            1. -6.2837220728397369e-02</leafValues></_>
        <_>
          <internalNodes>
            0 -1 104 4.2430253233760595e-04</internalNodes>
          <leafValues>
            -1.9750168547034264e-02 1.</leafValues></_>
        <_>
          <internalNodes>
            0 -1 23 8.4071602032054216e-05</internalNodes>
          <leafValues>
            -2.5685781110951211e-06 1.</leafValues></_>
        <_>
          <internalNodes>
            0 -1 44 -1.7224287148565054e-03</internalNodes>
          <leafValues>
            -1. 2.6525198481976986e-03</leafValues></_>
        <_>
          <internalNodes>
            0 -1 44 -1.0983367683365941e-03</internalNodes>
          <leafValues>
            1. 6.2209450923944587e-09</leafValues></_></weakClassifiers></_>
    <!-- stage 18 -->
    <_>
      <maxWeakCount>5</maxWeakCount>
      <stageThreshold>-1.3784202337265015e+00</stageThreshold>
      <weakClassifiers>
        <_>
          <internalNodes>
            0 -1 110 9.0287561761215329e-04</internalNodes>
          <leafValues>
            -8.6206895112991333e-01 1.</leafValues></_>
        <_>
          <internalNodes>
            0 -1 72 -4.3683247640728951e-03</internalNodes>
          <leafValues>
            1. -4.3376126885414124e-01</leafValues></_>
        <_>
          <internalNodes>
            0 -1 246 -3.5034405300393701e-04</internalNodes>
          <leafValues>
            1. -6.8781606853008270e-02</leafValues></_>
        <_>
          <internalNodes>
            0 -1 165 2.7579665184020996e-03</internalNodes>
          <leafValues>
            -1.3807474635541439e-02 1.</leafValues></_>
        <_>
          <internalNodes>
            0 -1 23 8.4071602032054216e-05</internalNodes>
          <leafValues>
            -8.7754864352973527e-07 1.</leafValues></_></weakClassifiers></_>
    <!-- stage 19 -->
    <_>
      <maxWeakCount>5</maxWeakCount>
      <stageThreshold>-1.3784202337265015e+00</stageThreshold>
      <weakClassifiers>
        <_>
          <internalNodes>
            0 -1 110 9.0287561761215329e-04</internalNodes>
          <leafValues>
            -8.6206895112991333e-01 1.</leafValues></_>
        <_>
          <internalNodes>
            0 -1 72 -4.3683247640728951e-03</internalNodes>
          <leafValues>
            1. -4.3376126885414124e-01</leafValues></_>
        <_>
          <internalNodes>
            0 -1 246 -3.5034405300393701e-04</internalNodes>
          <leafValues>
            1. -6.8781606853008270e-02</leafValues></_>
        <_>
          <internalNodes>
            0 -1 165 2.7579665184020996e-03</internalNodes>
          <leafValues>
            -1.3807474635541439e-02 1.</leafValues></_>
        <_>
          <internalNodes>
            0 -1 23 8.4071602032054216e-05</internalNodes>
          <leafValues>
            -8.7754864352973527e-07 1.</leafValues></_></weakClassifiers></_>
    <!-- stage 20 -->
    <_>
      <maxWeakCount>6</maxWeakCount>
      <stageThreshold>-1.3757677078247070e+00</stageThreshold>
      <weakClassifiers>
        <_>
          <internalNodes>
            0 -1 110 9.0287561761215329e-04</internalNodes>
          <leafValues>
            -8.6206895112991333e-01 1.</leafValues></_>
        <_>
          <internalNodes>
            0 -1 72 -4.3683247640728951e-03</internalNodes>
          <leafValues>
            1. -4.3376126885414124e-01</leafValues></_>
        <_>
          <internalNodes>
            0 -1 279 -2.2899457253515720e-03</internalNodes>
          <leafValues>
            1. -6.4317107200622559e-02</leafValues></_>
        <_>
          <internalNodes>
            0 -1 231 4.0855338738765568e-05</internalNodes>
          <leafValues>
            -1.8270814791321754e-02 1.</leafValues></_>
        <_>
          <internalNodes>
            0 -1 23 8.4071602032054216e-05</internalNodes>
          <leafValues>
            -2.0334780401753960e-06 1.</leafValues></_>
        <_>
          <internalNodes>
            0 -1 0 1.9724633602891117e-05</internalNodes>
          <leafValues>
            2.6525198481976986e-03 -1.</leafValues></_></weakClassifiers></_>
    <!-- stage 21 -->
    <_>
      <maxWeakCount>6</maxWeakCount>
      <stageThreshold>-1.3731009960174561e+00</stageThreshold>
      <weakClassifiers>
        <_>
          <internalNodes>
            0 -1 110 9.0287561761215329e-04</internalNodes>
          <leafValues>
            -8.6206895112991333e-01 1.</leafValues></_>
        <_>
          <internalNodes>
            0 -1 72 -4.3683247640728951e-03</internalNodes>
          <leafValues>
            1. -4.3376126885414124e-01</leafValues></_>
        <_>
          <internalNodes>
            0 -1 225 3.5310073872096837e-04</internalNodes>
          <leafValues>
            -5.8422148227691650e-02 1.</leafValues></_>
        <_>
          <internalNodes>
            0 -1 149 -2.2807381174061447e-04</internalNodes>
          <leafValues>
            1. -2.2623106837272644e-02</leafValues></_>
        <_>
          <internalNodes>
            0 -1 12 -3.3316402696073055e-03</internalNodes>
          <leafValues>
            -1. 8.9473892003297806e-03</leafValues></_>
        <_>
          <internalNodes>
            0 -1 23 8.4071602032054216e-05</internalNodes>
          <leafValues>
            -5.1728487014770508e-03 1.</leafValues></_></weakClassifiers></_>
    <!-- stage 22 -->
    <_>
      <maxWeakCount>6</maxWeakCount>
      <stageThreshold>-1.3757677078247070e+00</stageThreshold>
      <weakClassifiers>
        <_>
          <internalNodes>
            0 -1 110 9.0287561761215329e-04</internalNodes>
          <leafValues>
            -8.6206895112991333e-01 1.</leafValues></_>
        <_>
          <internalNodes>
            0 -1 216 1.3431326951831579e-03</internalNodes>
          <leafValues>
            -4.3376126885414124e-01 1.</leafValues></_>
        <_>
          <internalNodes>
            0 -1 278 -1.7120972916018218e-04</internalNodes>
          <leafValues>
            1. -6.4317107200622559e-02</leafValues></_>
        <_>
          <internalNodes>
            0 -1 194 -3.9832746551837772e-05</internalNodes>
          <leafValues>
            1. -1.8270814791321754e-02</leafValues></_>
        <_>
          <internalNodes>
            0 -1 23 8.4071602032054216e-05</internalNodes>
          <leafValues>
            -2.0334780401753960e-06 1.</leafValues></_>
        <_>
          <internalNodes>
            0 -1 42 -3.2207831740379333e-02</internalNodes>
          <leafValues>
            -1. 2.6525198481976986e-03</leafValues></_></weakClassifiers></_>
    <!-- stage 23 -->
    <_>
      <maxWeakCount>5</maxWeakCount>
      <stageThreshold>-1.3784202337265015e+00</stageThreshold>
      <weakClassifiers>
        <_>
          <internalNodes>
            0 -1 110 9.0287561761215329e-04</internalNodes>
          <leafValues>
            -8.6206895112991333e-01 1.</leafValues></_>
        <_>
          <internalNodes>
            0 -1 72 -4.3683247640728951e-03</internalNodes>
          <leafValues>
            1. -4.3376126885414124e-01</leafValues></_>
        <_>
          <internalNodes>
            0 -1 246 -3.5034405300393701e-04</internalNodes>
          <leafValues>
            1. -6.8781606853008270e-02</leafValues></_>
        <_>
          <internalNodes>
            0 -1 165 2.7579665184020996e-03</internalNodes>
          <leafValues>
            -1.3807474635541439e-02 1.</leafValues></_>
        <_>
          <internalNodes>
            0 -1 23 8.4071602032054216e-05</internalNodes>
          <leafValues>
            -8.7754864352973527e-07 1.</leafValues></_></weakClassifiers></_>
    <!-- stage 24 -->
    <_>
      <maxWeakCount>5</maxWeakCount>
      <stageThreshold>-1.3784202337265015e+00</stageThreshold>
      <weakClassifiers>
        <_>
          <internalNodes>
            0 -1 110 9.0287561761215329e-04</internalNodes>
          <leafValues>
            -8.6206895112991333e-01 1.</leafValues></_>
        <_>
          <internalNodes>
            0 -1 72 -4.3683247640728951e-03</internalNodes>
          <leafValues>
            1. -4.3376126885414124e-01</leafValues></_>
        <_>
          <internalNodes>
            0 -1 246 -3.5034405300393701e-04</internalNodes>
          <leafValues>
            1. -6.8781606853008270e-02</leafValues></_>
        <_>
          <internalNodes>
            0 -1 165 2.7579665184020996e-03</internalNodes>
          <leafValues>
            -1.3807474635541439e-02 1.</leafValues></_>
        <_>
          <internalNodes>
            0 -1 23 8.4071602032054216e-05</internalNodes>
          <leafValues>
            -8.7754864352973527e-07 1.</leafValues></_></weakClassifiers></_>
    <!-- stage 25 -->
    <_>
      <maxWeakCount>6</maxWeakCount>
      <stageThreshold>-1.3716344833374023e+00</stageThreshold>
      <weakClassifiers>
        <_>
          <internalNodes>
            0 -1 114 3.6553730024024844e-04</internalNodes>
          <leafValues>
            -8.6206895112991333e-01 1.</leafValues></_>
        <_>
          <internalNodes>
            0 -1 72 -5.5470825172960758e-03</internalNodes>
          <leafValues>
            1. -4.3376126885414124e-01</leafValues></_>
        <_>
          <internalNodes>
            0 -1 119 -3.0232634162530303e-04</internalNodes>
          <leafValues>
            1. -5.6958593428134918e-02</leafValues></_>
        <_>
          <internalNodes>
            0 -1 133 7.1354588726535439e-05</internalNodes>
          <leafValues>
            -2.2550586611032486e-02 1.</leafValues></_>
        <_>
          <internalNodes>
            0 -1 53 -1.1787577532231808e-03</internalNodes>
          <leafValues>
            -1. 7.4193309992551804e-03</leafValues></_>
        <_>
          <internalNodes>
            0 -1 164 -7.3094532126560807e-04</internalNodes>
          <leafValues>
            1. -3.7144115194678307e-03</leafValues></_></weakClassifiers></_>
    <!-- stage 26 -->
    <_>
      <maxWeakCount>5</maxWeakCount>
      <stageThreshold>-1.3784202337265015e+00</stageThreshold>
      <weakClassifiers>
        <_>
          <internalNodes>
            0 -1 110 9.0287561761215329e-04</internalNodes>
          <leafValues>
            -8.6206895112991333e-01 1.</leafValues></_>
        <_>
          <internalNodes>
            0 -1 72 -4.3683247640728951e-03</internalNodes>
          <leafValues>
            1. -4.3376126885414124e-01</leafValues></_>
        <_>
          <internalNodes>
            0 -1 246 -3.5034405300393701e-04</internalNodes>
          <leafValues>
            1. -6.8781606853008270e-02</leafValues></_>
        <_>
          <internalNodes>
            0 -1 165 2.7579665184020996e-03</internalNodes>
          <leafValues>
            -1.3807474635541439e-02 1.</leafValues></_>
        <_>
          <internalNodes>
            0 -1 23 8.4071602032054216e-05</internalNodes>
          <leafValues>
            -8.7754864352973527e-07 1.</leafValues></_></weakClassifiers></_>
    <!-- stage 27 -->
    <_>
      <maxWeakCount>5</maxWeakCount>
      <stageThreshold>-1.3784202337265015e+00</stageThreshold>
      <weakClassifiers>
        <_>
          <internalNodes>
            0 -1 110 9.0287561761215329e-04</internalNodes>
          <leafValues>
            -8.6206895112991333e-01 1.</leafValues></_>
        <_>
          <internalNodes>
            0 -1 72 -4.3683247640728951e-03</internalNodes>
          <leafValues>
            1. -4.3376126885414124e-01</leafValues></_>
        <_>
          <internalNodes>
            0 -1 246 -3.5034405300393701e-04</internalNodes>
          <leafValues>
            1. -6.8781606853008270e-02</leafValues></_>
        <_>
          <internalNodes>
            0 -1 165 2.7579665184020996e-03</internalNodes>
          <leafValues>
            -1.3807474635541439e-02 1.</leafValues></_>
        <_>
          <internalNodes>
            0 -1 23 8.4071602032054216e-05</internalNodes>
          <leafValues>
            -8.7754864352973527e-07 1.</leafValues></_></weakClassifiers></_>
    <!-- stage 28 -->
    <_>
      <maxWeakCount>5</maxWeakCount>
      <stageThreshold>-1.3784202337265015e+00</stageThreshold>
      <weakClassifiers>
        <_>
          <internalNodes>
            0 -1 110 9.0287561761215329e-04</internalNodes>
          <leafValues>
            -8.6206895112991333e-01 1.</leafValues></_>
        <_>
          <internalNodes>
            0 -1 72 -4.3683247640728951e-03</internalNodes>
          <leafValues>
            1. -4.3376126885414124e-01</leafValues></_>
        <_>
          <internalNodes>
            0 -1 246 -3.5034405300393701e-04</internalNodes>
          <leafValues>
            1. -6.8781606853008270e-02</leafValues></_>
        <_>
          <internalNodes>
            0 -1 165 2.7579665184020996e-03</internalNodes>
          <leafValues>
            -1.3807474635541439e-02 1.</leafValues></_>
        <_>
          <internalNodes>
            0 -1 23 8.4071602032054216e-05</internalNodes>
          <leafValues>
            -8.7754864352973527e-07 1.</leafValues></_></weakClassifiers></_>
    <!-- stage 29 -->
    <_>
      <maxWeakCount>6</maxWeakCount>
      <stageThreshold>-1.3757677078247070e+00</stageThreshold>
      <weakClassifiers>
        <_>
          <internalNodes>
            0 -1 114 3.6553730024024844e-04</internalNodes>
          <leafValues>
            -8.6206895112991333e-01 1.</leafValues></_>
        <_>
          <internalNodes>
            0 -1 72 -4.3683247640728951e-03</internalNodes>
          <leafValues>
            1. -4.3376126885414124e-01</leafValues></_>
        <_>
          <internalNodes>
            0 -1 246 -3.5034405300393701e-04</internalNodes>
          <leafValues>
            1. -6.8781606853008270e-02</leafValues></_>
        <_>
          <internalNodes>
            0 -1 292 2.2846081265015528e-05</internalNodes>
          <leafValues>
            -1.3807474635541439e-02 1.</leafValues></_>
        <_>
          <internalNodes>
            0 -1 23 8.4071602032054216e-05</internalNodes>
          <leafValues>
            -8.7754864352973527e-07 1.</leafValues></_>
        <_>
          <internalNodes>
            0 -1 0 -3.5991241020383313e-05</internalNodes>
          <leafValues>
            -1. 2.6525198481976986e-03</leafValues></_></weakClassifiers></_>
    <!-- stage 30 -->
    <_>
      <maxWeakCount>5</maxWeakCount>
      <stageThreshold>-1.3784202337265015e+00</stageThreshold>
      <weakClassifiers>
        <_>
          <internalNodes>
            0 -1 110 9.0287561761215329e-04</internalNodes>
          <leafValues>
            -8.6206895112991333e-01 1.</leafValues></_>
        <_>
          <internalNodes>
            0 -1 72 -4.3683247640728951e-03</internalNodes>
          <leafValues>
            1. -4.3376126885414124e-01</leafValues></_>
        <_>
          <internalNodes>
            0 -1 246 -3.5034405300393701e-04</internalNodes>
          <leafValues>
            1. -6.8781606853008270e-02</leafValues></_>
        <_>
          <internalNodes>
            0 -1 165 2.7579665184020996e-03</internalNodes>
          <leafValues>
            -1.3807474635541439e-02 1.</leafValues></_>
        <_>
          <internalNodes>
            0 -1 23 8.4071602032054216e-05</internalNodes>
          <leafValues>
            -8.7754864352973527e-07 1.</leafValues></_></weakClassifiers></_>
    <!-- stage 31 -->
    <_>
      <maxWeakCount>8</maxWeakCount>
      <stageThreshold>-1.3731009960174561e+00</stageThreshold>
      <weakClassifiers>
        <_>
          <internalNodes>
            0 -1 110 9.0287561761215329e-04</internalNodes>
          <leafValues>
            -8.6138612031936646e-01 9.7938144207000732e-01</leafValues></_>
        <_>
          <internalNodes>
            0 -1 246 -3.5034405300393701e-04</internalNodes>
          <leafValues>
            1. -4.4193938374519348e-01</leafValues></_>
        <_>
          <internalNodes>
            0 -1 221 7.3582096956670284e-03</internalNodes>
          <leafValues>
            -7.4452161788940430e-02 1.</leafValues></_>
        <_>
          <internalNodes>
            0 -1 245 1.4675119018647820e-04</internalNodes>
          <leafValues>
            -1.4473189599812031e-02 1.</leafValues></_>
        <_>
          <internalNodes>
            0 -1 36 -2.6173461810685694e-04</internalNodes>
          <leafValues>
            -1. 2.2705869749188423e-02</leafValues></_>
        <_>
          <internalNodes>
            0 -1 55 -1.9585057161748409e-03</internalNodes>
          <leafValues>
            1. -6.0187047347426414e-03</leafValues></_>
        <_>
          <internalNodes>
            0 -1 5 -7.7758049592375755e-03</internalNodes>
          <leafValues>
            -1. 6.0225352644920349e-03</leafValues></_>
        <_>
          <internalNodes>
            0 -1 23 8.4071602032054216e-05</internalNodes>
          <leafValues>
            -3.5597924143075943e-03 1.</leafValues></_></weakClassifiers></_>
    <!-- stage 32 -->
    <_>
      <maxWeakCount>5</maxWeakCount>
      <stageThreshold>-1.3784202337265015e+00</stageThreshold>
      <weakClassifiers>
        <_>
          <internalNodes>
            0 -1 110 9.0287561761215329e-04</internalNodes>
          <leafValues>
            -8.6206895112991333e-01 1.</leafValues></_>
        <_>
          <internalNodes>
            0 -1 72 -4.3683247640728951e-03</internalNodes>
          <leafValues>
            1. -4.3376126885414124e-01</leafValues></_>
        <_>
          <internalNodes>
            0 -1 246 -3.5034405300393701e-04</internalNodes>
          <leafValues>
            1. -6.8781606853008270e-02</leafValues></_>
        <_>
          <internalNodes>
            0 -1 165 2.7579665184020996e-03</internalNodes>
          <leafValues>
            -1.3807474635541439e-02 1.</leafValues></_>
        <_>
          <internalNodes>
            0 -1 23 8.4071602032054216e-05</internalNodes>
          <leafValues>
            -8.7754864352973527e-07 1.</leafValues></_></weakClassifiers></_>
    <!-- stage 33 -->
    <_>
      <maxWeakCount>7</maxWeakCount>
      <stageThreshold>-1.3757677078247070e+00</stageThreshold>
      <weakClassifiers>
        <_>
          <internalNodes>
            0 -1 111 1.0622065747156739e-03</internalNodes>
          <leafValues>
            -8.6206895112991333e-01 1.</leafValues></_>
        <_>
          <internalNodes>
            0 -1 76 -1.1880471138283610e-03</internalNodes>
          <leafValues>
            1. -4.3376126885414124e-01</leafValues></_>
        <_>
          <internalNodes>
            0 -1 246 -3.5034405300393701e-04</internalNodes>
          <leafValues>
            1. -6.8781606853008270e-02</leafValues></_>
        <_>
          <internalNodes>
            0 -1 92 -1.0676182573661208e-03</internalNodes>
          <leafValues>
            1. -1.2266893871128559e-02</leafValues></_>
        <_>
          <internalNodes>
            0 -1 23 8.4071602032054216e-05</internalNodes>
          <leafValues>
            -1.5414576046168804e-03 1.</leafValues></_>
        <_>
          <internalNodes>
            0 -1 15 -7.2452146559953690e-04</internalNodes>
          <leafValues>
            -1. 2.6525186840444803e-03</leafValues></_>
        <_>
          <internalNodes>
            0 -1 1 -7.5581585406325758e-05</internalNodes>
          <leafValues>
            1. 6.2209384310563109e-09</leafValues></_></weakClassifiers></_>
    <!-- stage 34 -->
    <_>
      <maxWeakCount>5</maxWeakCount>
      <stageThreshold>-1.3784202337265015e+00</stageThreshold>
      <weakClassifiers>
        <_>
          <internalNodes>
            0 -1 110 9.0287561761215329e-04</internalNodes>
          <leafValues>
            -8.6206895112991333e-01 1.</leafValues></_>
        <_>
          <internalNodes>
            0 -1 72 -4.3683247640728951e-03</internalNodes>
          <leafValues>
            1. -4.3376126885414124e-01</leafValues></_>
        <_>
          <internalNodes>
            0 -1 246 -3.5034405300393701e-04</internalNodes>
          <leafValues>
            1. -6.8781606853008270e-02</leafValues></_>
        <_>
          <internalNodes>
            0 -1 165 2.7579665184020996e-03</internalNodes>
          <leafValues>
            -1.3807474635541439e-02 1.</leafValues></_>
        <_>
          <internalNodes>
            0 -1 23 8.4071602032054216e-05</internalNodes>
          <leafValues>
            -8.7754864352973527e-07 1.</leafValues></_></weakClassifiers></_>
    <!-- stage 35 -->
    <_>
      <maxWeakCount>5</maxWeakCount>
      <stageThreshold>-1.3784202337265015e+00</stageThreshold>
      <weakClassifiers>
        <_>
          <internalNodes>
            0 -1 110 9.0287561761215329e-04</internalNodes>
          <leafValues>
            -8.6206895112991333e-01 1.</leafValues></_>
        <_>
          <internalNodes>
            0 -1 72 -4.3683247640728951e-03</internalNodes>
          <leafValues>
            1. -4.3376126885414124e-01</leafValues></_>
        <_>
          <internalNodes>
            0 -1 246 -3.5034405300393701e-04</internalNodes>
          <leafValues>
            1. -6.8781606853008270e-02</leafValues></_>
        <_>
          <internalNodes>
            0 -1 165 2.7579665184020996e-03</internalNodes>
          <leafValues>
            -1.3807474635541439e-02 1.</leafValues></_>
        <_>
          <internalNodes>
            0 -1 23 8.4071602032054216e-05</internalNodes>
          <leafValues>
            -8.7754864352973527e-07 1.</leafValues></_></weakClassifiers></_>
    <!-- stage 36 -->
    <_>
      <maxWeakCount>5</maxWeakCount>
      <stageThreshold>-1.3784202337265015e+00</stageThreshold>
      <weakClassifiers>
        <_>
          <internalNodes>
            0 -1 110 9.0287561761215329e-04</internalNodes>
          <leafValues>
            -8.6206895112991333e-01 1.</leafValues></_>
        <_>
          <internalNodes>
            0 -1 72 -4.3683247640728951e-03</internalNodes>
          <leafValues>
            1. -4.3376126885414124e-01</leafValues></_>
        <_>
          <internalNodes>
            0 -1 246 -3.5034405300393701e-04</internalNodes>
          <leafValues>
            1. -6.8781606853008270e-02</leafValues></_>
        <_>
          <internalNodes>
            0 -1 165 2.7579665184020996e-03</internalNodes>
          <leafValues>
            -1.3807474635541439e-02 1.</leafValues></_>
        <_>
          <internalNodes>
            0 -1 23 8.4071602032054216e-05</internalNodes>
          <leafValues>
            -8.7754864352973527e-07 1.</leafValues></_></weakClassifiers></_>
    <!-- stage 37 -->
    <_>
      <maxWeakCount>5</maxWeakCount>
      <stageThreshold>-1.3784202337265015e+00</stageThreshold>
      <weakClassifiers>
        <_>
          <internalNodes>
            0 -1 110 9.0287561761215329e-04</internalNodes>
          <leafValues>
            -8.6206895112991333e-01 1.</leafValues></_>
        <_>
          <internalNodes>
            0 -1 72 -4.3683247640728951e-03</internalNodes>
          <leafValues>
            1. -4.3376126885414124e-01</leafValues></_>
        <_>
          <internalNodes>
            0 -1 246 -3.5034405300393701e-04</internalNodes>
          <leafValues>
            1. -6.8781606853008270e-02</leafValues></_>
        <_>
          <internalNodes>
            0 -1 165 2.7579665184020996e-03</internalNodes>
          <leafValues>
            -1.3807474635541439e-02 1.</leafValues></_>
        <_>
          <internalNodes>
            0 -1 23 8.4071602032054216e-05</internalNodes>
          <leafValues>
            -8.7754864352973527e-07 1.</leafValues></_></weakClassifiers></_>
    <!-- stage 38 -->
    <_>
      <maxWeakCount>5</maxWeakCount>
      <stageThreshold>-1.3784202337265015e+00</stageThreshold>
      <weakClassifiers>
        <_>
          <internalNodes>
            0 -1 110 9.0287561761215329e-04</internalNodes>
          <leafValues>
            -8.6206895112991333e-01 1.</leafValues></_>
        <_>
          <internalNodes>
            0 -1 72 -4.3683247640728951e-03</internalNodes>
          <leafValues>
            1. -4.3376126885414124e-01</leafValues></_>
        <_>
          <internalNodes>
            0 -1 246 -3.5034405300393701e-04</internalNodes>
          <leafValues>
            1. -6.8781606853008270e-02</leafValues></_>
        <_>
          <internalNodes>
            0 -1 165 2.7579665184020996e-03</internalNodes>
          <leafValues>
            -1.3807474635541439e-02 1.</leafValues></_>
        <_>
          <internalNodes>
            0 -1 23 8.4071602032054216e-05</internalNodes>
          <leafValues>
            -8.7754864352973527e-07 1.</leafValues></_></weakClassifiers></_>
    <!-- stage 39 -->
    <_>
      <maxWeakCount>5</maxWeakCount>
      <stageThreshold>-1.3784202337265015e+00</stageThreshold>
      <weakClassifiers>
        <_>
          <internalNodes>
            0 -1 110 9.0287561761215329e-04</internalNodes>
          <leafValues>
            -8.6206895112991333e-01 1.</leafValues></_>
        <_>
          <internalNodes>
            0 -1 72 -4.3683247640728951e-03</internalNodes>
          <leafValues>
            1. -4.3376126885414124e-01</leafValues></_>
        <_>
          <internalNodes>
            0 -1 246 -3.5034405300393701e-04</internalNodes>
          <leafValues>
            1. -6.8781606853008270e-02</leafValues></_>
        <_>
          <internalNodes>
            0 -1 165 2.7579665184020996e-03</internalNodes>
          <leafValues>
            -1.3807474635541439e-02 1.</leafValues></_>
        <_>
          <internalNodes>
            0 -1 23 8.4071602032054216e-05</internalNodes>
          <leafValues>
            -8.7754864352973527e-07 1.</leafValues></_></weakClassifiers></_>
    <!-- stage 40 -->
    <_>
      <maxWeakCount>5</maxWeakCount>
      <stageThreshold>-1.3784202337265015e+00</stageThreshold>
      <weakClassifiers>
        <_>
          <internalNodes>
            0 -1 110 9.0287561761215329e-04</internalNodes>
          <leafValues>
            -8.6206895112991333e-01 1.</leafValues></_>
        <_>
          <internalNodes>
            0 -1 72 -4.3683247640728951e-03</internalNodes>
          <leafValues>
            1. -4.3376126885414124e-01</leafValues></_>
        <_>
          <internalNodes>
            0 -1 246 -3.5034405300393701e-04</internalNodes>
          <leafValues>
            1. -6.8781606853008270e-02</leafValues></_>
        <_>
          <internalNodes>
            0 -1 165 2.7579665184020996e-03</internalNodes>
          <leafValues>
            -1.3807474635541439e-02 1.</leafValues></_>
        <_>
          <internalNodes>
            0 -1 23 8.4071602032054216e-05</internalNodes>
          <leafValues>
            -8.7754864352973527e-07 1.</leafValues></_></weakClassifiers></_>
    <!-- stage 41 -->
    <_>
      <maxWeakCount>7</maxWeakCount>
      <stageThreshold>-1.3757677078247070e+00</stageThreshold>
      <weakClassifiers>
        <_>
          <internalNodes>
            0 -1 114 3.6553730024024844e-04</internalNodes>
          <leafValues>
            -8.6206895112991333e-01 1.</leafValues></_>
        <_>
          <internalNodes>
            0 -1 221 7.3582096956670284e-03</internalNodes>
          <leafValues>
            -4.2903923988342285e-01 1.</leafValues></_>
        <_>
          <internalNodes>
            0 -1 246 -3.5034405300393701e-04</internalNodes>
          <leafValues>
            9.6918469667434692e-01 -7.0777364075183868e-02</leafValues></_>
        <_>
          <internalNodes>
            0 -1 275 -1.3080716598778963e-04</internalNodes>
          <leafValues>
            1. -2.1347008645534515e-02</leafValues></_>
        <_>
          <internalNodes>
            0 -1 21 1.8192677525803447e-03</internalNodes>
          <leafValues>
            1.2739946134388447e-02 -1.</leafValues></_>
        <_>
          <internalNodes>
            0 -1 23 8.4071602032054216e-05</internalNodes>
          <leafValues>
            -8.0003701150417328e-03 1.</leafValues></_>
        <_>
          <internalNodes>
            0 -1 21 1.8192677525803447e-03</internalNodes>
          <leafValues>
            2.7253485750406981e-03 -1.</leafValues></_></weakClassifiers></_>
    <!-- stage 42 -->
    <_>
      <maxWeakCount>5</maxWeakCount>
      <stageThreshold>-1.3784202337265015e+00</stageThreshold>
      <weakClassifiers>
        <_>
          <internalNodes>
            0 -1 110 9.0287561761215329e-04</internalNodes>
          <leafValues>
            -8.6206895112991333e-01 1.</leafValues></_>
        <_>
          <internalNodes>
            0 -1 72 -4.3683247640728951e-03</internalNodes>
          <leafValues>
            1. -4.3376126885414124e-01</leafValues></_>
        <_>
          <internalNodes>
            0 -1 246 -3.5034405300393701e-04</internalNodes>
          <leafValues>
            1. -6.8781606853008270e-02</leafValues></_>
        <_>
          <internalNodes>
            0 -1 165 2.7579665184020996e-03</internalNodes>
          <leafValues>
            -1.3807474635541439e-02 1.</leafValues></_>
        <_>
          <internalNodes>
            0 -1 23 8.4071602032054216e-05</internalNodes>
          <leafValues>
            -8.7754864352973527e-07 1.</leafValues></_></weakClassifiers></_>
    <!-- stage 43 -->
    <_>
      <maxWeakCount>5</maxWeakCount>
      <stageThreshold>-1.3784202337265015e+00</stageThreshold>
      <weakClassifiers>
        <_>
          <internalNodes>
            0 -1 110 9.0287561761215329e-04</internalNodes>
          <leafValues>
            -8.6206895112991333e-01 1.</leafValues></_>
        <_>
          <internalNodes>
            0 -1 72 -4.3683247640728951e-03</internalNodes>
          <leafValues>
            1. -4.3376126885414124e-01</leafValues></_>
        <_>
          <internalNodes>
            0 -1 246 -3.5034405300393701e-04</internalNodes>
          <leafValues>
            1. -6.8781606853008270e-02</leafValues></_>
        <_>
          <internalNodes>
            0 -1 165 2.7579665184020996e-03</internalNodes>
          <leafValues>
            -1.3807474635541439e-02 1.</leafValues></_>
        <_>
          <internalNodes>
            0 -1 23 8.4071602032054216e-05</internalNodes>
          <leafValues>
            -8.7754864352973527e-07 1.</leafValues></_></weakClassifiers></_>
    <!-- stage 44 -->
    <_>
      <maxWeakCount>5</maxWeakCount>
      <stageThreshold>-1.3784202337265015e+00</stageThreshold>
      <weakClassifiers>
        <_>
          <internalNodes>
            0 -1 110 9.0287561761215329e-04</internalNodes>
          <leafValues>
            -8.6206895112991333e-01 1.</leafValues></_>
        <_>
          <internalNodes>
            0 -1 72 -4.3683247640728951e-03</internalNodes>
          <leafValues>
            1. -4.3376126885414124e-01</leafValues></_>
        <_>
          <internalNodes>
            0 -1 246 -3.5034405300393701e-04</internalNodes>
          <leafValues>
            1. -6.8781606853008270e-02</leafValues></_>
        <_>
          <internalNodes>
            0 -1 165 2.7579665184020996e-03</internalNodes>
          <leafValues>
            -1.3807474635541439e-02 1.</leafValues></_>
        <_>
          <internalNodes>
            0 -1 23 8.4071602032054216e-05</internalNodes>
          <leafValues>
            -8.7754864352973527e-07 1.</leafValues></_></weakClassifiers></_>
    <!-- stage 45 -->
    <_>
      <maxWeakCount>5</maxWeakCount>
      <stageThreshold>-1.3784202337265015e+00</stageThreshold>
      <weakClassifiers>
        <_>
          <internalNodes>
            0 -1 110 9.0287561761215329e-04</internalNodes>
          <leafValues>
            -8.6206895112991333e-01 1.</leafValues></_>
        <_>
          <internalNodes>
            0 -1 72 -4.3683247640728951e-03</internalNodes>
          <leafValues>
            1. -4.3376126885414124e-01</leafValues></_>
        <_>
          <internalNodes>
            0 -1 246 -3.5034405300393701e-04</internalNodes>
          <leafValues>
            1. -6.8781606853008270e-02</leafValues></_>
        <_>
          <internalNodes>
            0 -1 165 2.7579665184020996e-03</internalNodes>
          <leafValues>
            -1.3807474635541439e-02 1.</leafValues></_>
        <_>
          <internalNodes>
            0 -1 23 8.4071602032054216e-05</internalNodes>
          <leafValues>
            -8.7754864352973527e-07 1.</leafValues></_></weakClassifiers></_>
    <!-- stage 46 -->
    <_>
      <maxWeakCount>5</maxWeakCount>
      <stageThreshold>-1.3784202337265015e+00</stageThreshold>
      <weakClassifiers>
        <_>
          <internalNodes>
            0 -1 110 9.0287561761215329e-04</internalNodes>
          <leafValues>
            -8.6206895112991333e-01 1.</leafValues></_>
        <_>
          <internalNodes>
            0 -1 72 -4.3683247640728951e-03</internalNodes>
          <leafValues>
            1. -4.3376126885414124e-01</leafValues></_>
        <_>
          <internalNodes>
            0 -1 246 -3.5034405300393701e-04</internalNodes>
          <leafValues>
            1. -6.8781606853008270e-02</leafValues></_>
        <_>
          <internalNodes>
            0 -1 165 2.7579665184020996e-03</internalNodes>
          <leafValues>
            -1.3807474635541439e-02 1.</leafValues></_>
        <_>
          <internalNodes>
            0 -1 23 8.4071602032054216e-05</internalNodes>
          <leafValues>
            -8.7754864352973527e-07 1.</leafValues></_></weakClassifiers></_>
    <!-- stage 47 -->
    <_>
      <maxWeakCount>6</maxWeakCount>
      <stageThreshold>-1.3757677078247070e+00</stageThreshold>
      <weakClassifiers>
        <_>
          <internalNodes>
            0 -1 110 9.0287561761215329e-04</internalNodes>
          <leafValues>
            -8.6206895112991333e-01 1.</leafValues></_>
        <_>
          <internalNodes>
            0 -1 72 -4.3683247640728951e-03</internalNodes>
          <leafValues>
            1. -4.3376126885414124e-01</leafValues></_>
        <_>
          <internalNodes>
            0 -1 246 -3.5034405300393701e-04</internalNodes>
          <leafValues>
            1. -6.8781606853008270e-02</leafValues></_>
        <_>
          <internalNodes>
            0 -1 165 2.7579665184020996e-03</internalNodes>
          <leafValues>
            -1.3807474635541439e-02 1.</leafValues></_>
        <_>
          <internalNodes>
            0 -1 23 8.4071602032054216e-05</internalNodes>
          <leafValues>
            -8.7754864352973527e-07 1.</leafValues></_>
        <_>
          <internalNodes>
            0 -1 58 -1.8672842532396317e-02</internalNodes>
          <leafValues>
            -1. 2.6525198481976986e-03</leafValues></_></weakClassifiers></_>
    <!-- stage 48 -->
    <_>
      <maxWeakCount>5</maxWeakCount>
      <stageThreshold>-1.3784202337265015e+00</stageThreshold>
      <weakClassifiers>
        <_>
          <internalNodes>
            0 -1 110 9.0287561761215329e-04</internalNodes>
          <leafValues>
            -8.6206895112991333e-01 1.</leafValues></_>
        <_>
          <internalNodes>
            0 -1 72 -4.3683247640728951e-03</internalNodes>
          <leafValues>
            1. -4.3376126885414124e-01</leafValues></_>
        <_>
          <internalNodes>
            0 -1 246 -3.5034405300393701e-04</internalNodes>
          <leafValues>
            1. -6.8781606853008270e-02</leafValues></_>
        <_>
          <internalNodes>
            0 -1 165 2.7579665184020996e-03</internalNodes>
          <leafValues>
            -1.3807474635541439e-02 1.</leafValues></_>
        <_>
          <internalNodes>
            0 -1 23 8.4071602032054216e-05</internalNodes>
          <leafValues>
            -8.7754864352973527e-07 1.</leafValues></_></weakClassifiers></_>
    <!-- stage 49 -->
    <_>
      <maxWeakCount>5</maxWeakCount>
      <stageThreshold>-1.3784202337265015e+00</stageThreshold>
      <weakClassifiers>
        <_>
          <internalNodes>
            0 -1 110 9.0287561761215329e-04</internalNodes>
          <leafValues>
            -8.6206895112991333e-01 1.</leafValues></_>
        <_>
          <internalNodes>
            0 -1 72 -4.3683247640728951e-03</internalNodes>
          <leafValues>
            1. -4.3376126885414124e-01</leafValues></_>
        <_>
          <internalNodes>
            0 -1 246 -3.5034405300393701e-04</internalNodes>
          <leafValues>
            1. -6.8781606853008270e-02</leafValues></_>
        <_>
          <internalNodes>
            0 -1 165 2.7579665184020996e-03</internalNodes>
          <leafValues>
            -1.3807474635541439e-02 1.</leafValues></_>
        <_>
          <internalNodes>
            0 -1 23 8.4071602032054216e-05</internalNodes>
          <leafValues>
            -8.7754864352973527e-07 1.</leafValues></_></weakClassifiers></_>
    <!-- stage 50 -->
    <_>
      <maxWeakCount>5</maxWeakCount>
      <stageThreshold>-1.3784202337265015e+00</stageThreshold>
      <weakClassifiers>
        <_>
          <internalNodes>
            0 -1 110 9.0287561761215329e-04</internalNodes>
          <leafValues>
            -8.6206895112991333e-01 1.</leafValues></_>
        <_>
          <internalNodes>
            0 -1 72 -4.3683247640728951e-03</internalNodes>
          <leafValues>
            1. -4.3376126885414124e-01</leafValues></_>
        <_>
          <internalNodes>
            0 -1 246 -3.5034405300393701e-04</internalNodes>
          <leafValues>
            1. -6.8781606853008270e-02</leafValues></_>
        <_>
          <internalNodes>
            0 -1 165 2.7579665184020996e-03</internalNodes>
          <leafValues>
            -1.3807474635541439e-02 1.</leafValues></_>
        <_>
          <internalNodes>
            0 -1 23 8.4071602032054216e-05</internalNodes>
          <leafValues>
            -8.7754864352973527e-07 1.</leafValues></_></weakClassifiers></_>
    <!-- stage 51 -->
    <_>
      <maxWeakCount>7</maxWeakCount>
      <stageThreshold>-1.3743252754211426e+00</stageThreshold>
      <weakClassifiers>
        <_>
          <internalNodes>
            0 -1 110 9.0287561761215329e-04</internalNodes>
          <leafValues>
            -8.6206895112991333e-01 1.</leafValues></_>
        <_>
          <internalNodes>
            0 -1 72 -4.3683247640728951e-03</internalNodes>
          <leafValues>
            1. -4.3376126885414124e-01</leafValues></_>
        <_>
          <internalNodes>
            0 -1 246 -3.5034405300393701e-04</internalNodes>
          <leafValues>
            1. -6.8781606853008270e-02</leafValues></_>
        <_>
          <internalNodes>
            0 -1 165 2.7579665184020996e-03</internalNodes>
          <leafValues>
            -1.3807474635541439e-02 1.</leafValues></_>
        <_>
          <internalNodes>
            0 -1 23 8.4071602032054216e-05</internalNodes>
          <leafValues>
            -8.7754864352973527e-07 1.</leafValues></_>
        <_>
          <internalNodes>
            0 -1 62 -4.5501574873924255e-02</internalNodes>
          <leafValues>
            -1. 2.6525198481976986e-03</leafValues></_>
        <_>
          <internalNodes>
            0 -1 218 -1.7210299847647548e-04</internalNodes>
          <leafValues>
            1. 1.4423922402784228e-03</leafValues></_></weakClassifiers></_>
    <!-- stage 52 -->
    <_>
      <maxWeakCount>6</maxWeakCount>
      <stageThreshold>-1.3757677078247070e+00</stageThreshold>
      <weakClassifiers>
        <_>
          <internalNodes>
            0 -1 114 3.6553730024024844e-04</internalNodes>
          <leafValues>
            -8.6206895112991333e-01 1.</leafValues></_>
        <_>
          <internalNodes>
            0 -1 235 -1.2043077731505036e-03</internalNodes>
          <leafValues>
            1. -4.3376126885414124e-01</leafValues></_>
        <_>
          <internalNodes>
            0 -1 246 -3.5034405300393701e-04</internalNodes>
          <leafValues>
            1. -6.4029030501842499e-02</leafValues></_>
        <_>
          <internalNodes>
            0 -1 193 -6.0268770903348923e-04</internalNodes>
          <leafValues>
            1. -1.8558798357844353e-02</leafValues></_>
        <_>
          <internalNodes>
            0 -1 23 8.4071602032054216e-05</internalNodes>
          <leafValues>
            -2.1311698219506070e-06 1.</leafValues></_>
        <_>
          <internalNodes>
            0 -1 0 -4.5154451072448865e-05</internalNodes>
          <leafValues>
            -1. 2.6525198481976986e-03</leafValues></_></weakClassifiers></_>
    <!-- stage 53 -->
    <_>
      <maxWeakCount>5</maxWeakCount>
      <stageThreshold>-1.3784202337265015e+00</stageThreshold>
      <weakClassifiers>
        <_>
          <internalNodes>
            0 -1 110 9.0287561761215329e-04</internalNodes>
          <leafValues>
            -8.6206895112991333e-01 1.</leafValues></_>
        <_>
          <internalNodes>
            0 -1 72 -4.3683247640728951e-03</internalNodes>
          <leafValues>
            1. -4.3376126885414124e-01</leafValues></_>
        <_>
          <internalNodes>
            0 -1 246 -3.5034405300393701e-04</internalNodes>
          <leafValues>
            1. -6.8781606853008270e-02</leafValues></_>
        <_>
          <internalNodes>
            0 -1 165 2.7579665184020996e-03</internalNodes>
          <leafValues>
            -1.3807474635541439e-02 1.</leafValues></_>
        <_>
          <internalNodes>
            0 -1 23 8.4071602032054216e-05</internalNodes>
          <leafValues>
            -8.7754864352973527e-07 1.</leafValues></_></weakClassifiers></_>
    <!-- stage 54 -->
    <_>
      <maxWeakCount>100</maxWeakCount>
      <stageThreshold>-1.3757677078247070e+00</stageThreshold>
      <weakClassifiers>
        <_>
          <internalNodes>
            0 -1 110 9.0287561761215329e-04</internalNodes>
          <leafValues>
            -8.6138612031936646e-01 9.7938144207000732e-01</leafValues></_>
        <_>
          <internalNodes>
            0 -1 221 7.3582096956670284e-03</internalNodes>
          <leafValues>
            -4.4050779938697815e-01 1.</leafValues></_>
        <_>
          <internalNodes>
            0 -1 217 -5.4191204253584146e-04</internalNodes>
          <leafValues>
            1. -6.2526606023311615e-02</leafValues></_>
        <_>
          <internalNodes>
            0 -1 176 -3.0448992038145661e-04</internalNodes>
          <leafValues>
            1. -2.7824157848954201e-02</leafValues></_>
        <_>
          <internalNodes>
            0 -1 12 -1.1763208312913775e-03</internalNodes>
          <leafValues>
            -1. 2.1599149331450462e-02</leafValues></_>
        <_>
          <internalNodes>
            0 -1 23 8.4071602032054216e-05</internalNodes>
          <leafValues>
            -1.1119075119495392e-02 1.</leafValues></_>
        <_>
          <internalNodes>
            0 -1 12 -1.1763208312913775e-03</internalNodes>
          <leafValues>
            -1. 5.9969006106257439e-03</leafValues></_>
        <_>
          <internalNodes>
            0 -1 12 -5.9263902949169278e-04</internalNodes>
          <leafValues>
            1. 7.1890028152665764e-08</leafValues></_>
        <_>
          <internalNodes>
            0 -1 12 -1.1763208312913775e-03</internalNodes>
          <leafValues>
            -1. -2.3078352854514865e-15</leafValues></_>
        <_>
          <internalNodes>
            0 -1 12 -5.9263902949169278e-04</internalNodes>
          <leafValues>
            1. 1.5559662780629700e-15</leafValues></_>
        <_>
          <internalNodes>
            0 -1 12 -1.1763208312913775e-03</internalNodes>
          <leafValues>
            -1. 7.8356656846154853e-16</leafValues></_>
        <_>
          <internalNodes>
            0 -1 12 -5.9263902949169278e-04</internalNodes>
          <leafValues>
            1. -1.1762392902264990e-15</leafValues></_>
        <_>
          <internalNodes>
            0 -1 12 -1.1763208312913775e-03</internalNodes>
          <leafValues>
            -1. 1.1950407746775843e-15</leafValues></_>
        <_>
          <internalNodes>
            0 -1 12 -5.9263902949169278e-04</internalNodes>
          <leafValues>
            1. -1.1121470599648447e-15</leafValues></_>
        <_>
          <internalNodes>
            0 -1 12 -1.1763208312913775e-03</internalNodes>
          <leafValues>
            -1. -1.9996590764937176e-15</leafValues></_>
        <_>
          <internalNodes>
            0 -1 12 -5.9263902949169278e-04</internalNodes>
          <leafValues>
            1. -6.2151063680607969e-16</leafValues></_>
        <_>
          <internalNodes>
            0 -1 12 -1.1763208312913775e-03</internalNodes>
          <leafValues>
            -1. 8.7719875512134136e-16</leafValues></_>
        <_>
          <internalNodes>
            0 -1 12 -5.9263902949169278e-04</internalNodes>
          <leafValues>
            1. 2.5632436711359174e-15</leafValues></_>
        <_>
          <internalNodes>
            0 -1 12 -1.1763208312913775e-03</internalNodes>
          <leafValues>
            -1. 2.2963261723411095e-16</leafValues></_>
        <_>
          <internalNodes>
            0 -1 12 -5.9263902949169278e-04</internalNodes>
          <leafValues>
            1. -4.3787857899233687e-16</leafValues></_>
        <_>
          <internalNodes>
            0 -1 12 -1.1763208312913775e-03</internalNodes>
          <leafValues>
            -1. -4.1333831397470568e-17</leafValues></_>
        <_>
          <internalNodes>
            0 -1 12 -5.9263902949169278e-04</internalNodes>
          <leafValues>
            1. -3.4964338451696098e-15</leafValues></_>
        <_>
          <internalNodes>
            0 -1 12 -1.1763208312913775e-03</internalNodes>
          <leafValues>
            -1. 3.5896125515652664e-15</leafValues></_>
        <_>
          <internalNodes>
            0 -1 12 -5.9263902949169278e-04</internalNodes>
          <leafValues>
            1. -2.5425176219495520e-15</leafValues></_>
        <_>
          <internalNodes>
            0 -1 12 -1.1763208312913775e-03</internalNodes>
          <leafValues>
            -1. 3.4104989645388720e-15</leafValues></_>
        <_>
          <internalNodes>
            0 -1 12 -5.9263902949169278e-04</internalNodes>
          <leafValues>
            1. -1.2138166363820152e-15</leafValues></_>
        <_>
          <internalNodes>
            0 -1 12 -1.1763208312913775e-03</internalNodes>
          <leafValues>
            -1. -1.6928492375589883e-15</leafValues></_>
        <_>
          <internalNodes>
            0 -1 12 -5.9263902949169278e-04</internalNodes>
          <leafValues>
            1. -8.4656406157843588e-16</leafValues></_>
        <_>
          <internalNodes>
            0 -1 12 -1.1763208312913775e-03</internalNodes>
          <leafValues>
            -1. 1.2400142801796270e-16</leafValues></_>
        <_>
          <internalNodes>
            0 -1 12 -5.9263902949169278e-04</internalNodes>
          <leafValues>
            1. -4.4070298388517674e-16</leafValues></_>
        <_>
          <internalNodes>
            0 -1 12 -1.1763208312913775e-03</internalNodes>
          <leafValues>
            -1. 1.4705651340681208e-15</leafValues></_>
        <_>
          <internalNodes>
            0 -1 12 -5.9263902949169278e-04</internalNodes>
          <leafValues>
            1. -1.9473797794727086e-15</leafValues></_>
        <_>
          <internalNodes>
            0 -1 12 -1.1763208312913775e-03</internalNodes>
          <leafValues>
            -1. 3.3259940872813363e-15</leafValues></_>
        <_>
          <internalNodes>
            0 -1 12 -5.9263902949169278e-04</internalNodes>
          <leafValues>
            1. -6.9307136832191200e-16</leafValues></_>
        <_>
          <internalNodes>
            0 -1 12 -1.1763208312913775e-03</internalNodes>
          <leafValues>
            -1. 1.5054692442421024e-15</leafValues></_>
        <_>
          <internalNodes>
            0 -1 12 -5.9263902949169278e-04</internalNodes>
          <leafValues>
            1. -2.4577666816208389e-15</leafValues></_>
        <_>
          <internalNodes>
            0 -1 12 -1.1763208312913775e-03</internalNodes>
          <leafValues>
            -1. 1.2280734714337259e-15</leafValues></_>
        <_>
          <internalNodes>
            0 -1 12 -5.9263902949169278e-04</internalNodes>
          <leafValues>
            1. -2.1093475138225445e-15</leafValues></_>
        <_>
          <internalNodes>
            0 -1 12 -1.1763208312913775e-03</internalNodes>
          <leafValues>
            -1. 2.8051880446072677e-15</leafValues></_>
        <_>
          <internalNodes>
            0 -1 12 -5.9263902949169278e-04</internalNodes>
          <leafValues>
            1. -3.9597350328128209e-15</leafValues></_>
        <_>
          <internalNodes>
            0 -1 12 -1.1763208312913775e-03</internalNodes>
          <leafValues>
            -1. 3.1707625942027770e-15</leafValues></_>
        <_>
          <internalNodes>
            0 -1 12 -5.9263902949169278e-04</internalNodes>
          <leafValues>
            1. 3.6442745522669018e-16</leafValues></_>
        <_>
          <internalNodes>
            0 -1 12 -1.1763208312913775e-03</internalNodes>
          <leafValues>
            -1. 4.9233160078401687e-16</leafValues></_>
        <_>
          <internalNodes>
            0 -1 12 -5.9263902949169278e-04</internalNodes>
          <leafValues>
            1. -1.5349270649141368e-16</leafValues></_>
        <_>
          <internalNodes>
            0 -1 12 -1.1763208312913775e-03</internalNodes>
          <leafValues>
            -1. -1.0471231993403290e-15</leafValues></_>
        <_>
          <internalNodes>
            0 -1 12 -5.9263902949169278e-04</internalNodes>
          <leafValues>
            1. 1.3833176700064941e-15</leafValues></_>
        <_>
          <internalNodes>
            0 -1 12 -1.1763208312913775e-03</internalNodes>
          <leafValues>
            -1. -4.2160487908387482e-16</leafValues></_>
        <_>
          <internalNodes>
            0 -1 12 -5.9263902949169278e-04</internalNodes>
          <leafValues>
            1. -1.4473514549947879e-15</leafValues></_>
        <_>
          <internalNodes>
            0 -1 12 -1.1763208312913775e-03</internalNodes>
          <leafValues>
            -1. 1.2161325303389268e-15</leafValues></_>
        <_>
          <internalNodes>
            0 -1 12 -5.9263902949169278e-04</internalNodes>
          <leafValues>
            1. 8.4373904788066518e-16</leafValues></_>
        <_>
          <internalNodes>
            0 -1 12 -1.1763208312913775e-03</internalNodes>
          <leafValues>
            -1. -1.9380964836592586e-16</leafValues></_>
        <_>
          <internalNodes>
            0 -1 12 -5.9263902949169278e-04</internalNodes>
          <leafValues>
            1. -5.5087872985647092e-16</leafValues></_>
        <_>
          <internalNodes>
            0 -1 12 -1.1763208312913775e-03</internalNodes>
          <leafValues>
            -1. -1.8508362346940843e-15</leafValues></_>
        <_>
          <internalNodes>
            0 -1 12 -5.9263902949169278e-04</internalNodes>
          <leafValues>
            1. -7.7217191067816926e-16</leafValues></_>
        <_>
          <internalNodes>
            0 -1 12 -1.1763208312913775e-03</internalNodes>
          <leafValues>
            -1. -8.5882475761082347e-16</leafValues></_>
        <_>
          <internalNodes>
            0 -1 12 -5.9263902949169278e-04</internalNodes>
          <leafValues>
            1. 2.9954619259884479e-15</leafValues></_>
        <_>
          <internalNodes>
            0 -1 12 -1.1763208312913775e-03</internalNodes>
          <leafValues>
            -1. -1.1297908091957110e-16</leafValues></_>
        <_>
          <internalNodes>
            0 -1 12 -5.9263902949169278e-04</internalNodes>
          <leafValues>
            1. 1.2844420317658419e-15</leafValues></_>
        <_>
          <internalNodes>
            0 -1 12 -1.1763208312913775e-03</internalNodes>
          <leafValues>
            -1. -4.1701223997408241e-16</leafValues></_>
        <_>
          <internalNodes>
            0 -1 12 -5.9263902949169278e-04</internalNodes>
          <leafValues>
            1. -2.9832201823182551e-15</leafValues></_>
        <_>
          <internalNodes>
            0 -1 12 -1.1763208312913775e-03</internalNodes>
          <leafValues>
            -1. 2.8869371001709115e-15</leafValues></_>
        <_>
          <internalNodes>
            0 -1 12 -5.9263902949169278e-04</internalNodes>
          <leafValues>
            1. -1.7345616926838815e-15</leafValues></_>
        <_>
          <internalNodes>
            0 -1 12 -1.1763208312913775e-03</internalNodes>
          <leafValues>
            -1. -1.7525536253956285e-15</leafValues></_>
        <_>
          <internalNodes>
            0 -1 12 -5.9263902949169278e-04</internalNodes>
          <leafValues>
            1. 5.7536221719685647e-16</leafValues></_>
        <_>
          <internalNodes>
            0 -1 12 -1.1763208312913775e-03</internalNodes>
          <leafValues>
            -1. -1.0590641404351281e-15</leafValues></_>
        <_>
          <internalNodes>
            0 -1 12 -5.9263902949169278e-04</internalNodes>
          <leafValues>
            1. 1.0396070524828680e-15</leafValues></_>
        <_>
          <internalNodes>
            0 -1 12 -1.1763208312913775e-03</internalNodes>
          <leafValues>
            -1. -1.0590641404351281e-15</leafValues></_>
        <_>
          <internalNodes>
            0 -1 12 -5.9263902949169278e-04</internalNodes>
          <leafValues>
            1. 1.1573161506683643e-15</leafValues></_>
        <_>
          <internalNodes>
            0 -1 12 -1.1763208312913775e-03</internalNodes>
          <leafValues>
            -1. -1.0030338638863218e-15</leafValues></_>
        <_>
          <internalNodes>
            0 -1 12 -5.9263902949169278e-04</internalNodes>
          <leafValues>
            1. 1.1573161506683643e-15</leafValues></_>
        <_>
          <internalNodes>
            0 -1 12 -1.1763208312913775e-03</internalNodes>
          <leafValues>
            -1. -1.0030338638863218e-15</leafValues></_>
        <_>
          <internalNodes>
            0 -1 12 -5.9263902949169278e-04</internalNodes>
          <leafValues>
            1. 1.1573161506683643e-15</leafValues></_>
        <_>
          <internalNodes>
            0 -1 12 -1.1763208312913775e-03</internalNodes>
          <leafValues>
            -1. -1.0030338638863218e-15</leafValues></_>
        <_>
          <internalNodes>
            0 -1 12 -5.9263902949169278e-04</internalNodes>
          <leafValues>
            1. 1.1573161506683643e-15</leafValues></_>
        <_>
          <internalNodes>
            0 -1 12 -1.1763208312913775e-03</internalNodes>
          <leafValues>
            -1. -1.0030338638863218e-15</leafValues></_>
        <_>
          <internalNodes>
            0 -1 12 -5.9263902949169278e-04</internalNodes>
          <leafValues>
            1. 1.1573161506683643e-15</leafValues></_>
        <_>
          <internalNodes>
            0 -1 12 -1.1763208312913775e-03</internalNodes>
          <leafValues>
            -1. -1.0030338638863218e-15</leafValues></_>
        <_>
          <internalNodes>
            0 -1 12 -5.9263902949169278e-04</internalNodes>
          <leafValues>
            1. 1.1573161506683643e-15</leafValues></_>
        <_>
          <internalNodes>
            0 -1 12 -1.1763208312913775e-03</internalNodes>
          <leafValues>
            -1. -1.0030338638863218e-15</leafValues></_>
        <_>
          <internalNodes>
            0 -1 12 -5.9263902949169278e-04</internalNodes>
          <leafValues>
            1. 1.1573161506683643e-15</leafValues></_>
        <_>
          <internalNodes>
            0 -1 12 -1.1763208312913775e-03</internalNodes>
          <leafValues>
            -1. -1.0590641404351281e-15</leafValues></_>
        <_>
          <internalNodes>
            0 -1 12 -5.9263902949169278e-04</internalNodes>
          <leafValues>
            1. 1.1573161506683643e-15</leafValues></_>
        <_>
          <internalNodes>
            0 -1 12 -1.1763208312913775e-03</internalNodes>
          <leafValues>
            -1. -1.0590641404351281e-15</leafValues></_>
        <_>
          <internalNodes>
            0 -1 12 -5.9263902949169278e-04</internalNodes>
          <leafValues>
            1. 1.1573161506683643e-15</leafValues></_>
        <_>
          <internalNodes>
            0 -1 12 -1.1763208312913775e-03</internalNodes>
          <leafValues>
            -1. -1.0590641404351281e-15</leafValues></_>
        <_>
          <internalNodes>
            0 -1 12 -5.9263902949169278e-04</internalNodes>
          <leafValues>
            1. 1.1573161506683643e-15</leafValues></_>
